{"learner":{"attributes":{"scikit_learn":"{\"_estimator_type\": \"regressor\"}"},"feature_names":["lag1","lag2","lag3","rolling","temperature_2m_mean","precipitation_sum","wind_speed_10m_max","wind_direction_10m_dominant"],"feature_types":["float","float","float","float","float","float","float","float"],"gradient_booster":{"model":{"gbtree_model_param":{"num_parallel_tree":"1","num_trees":"100"},"iteration_indptr":[0,1,2,3,4,5,6,7,8,9,10,11,12,13,14,15,16,17,18,19,20,21,22,23,24,25,26,27,28,29,30,31,32,33,34,35,36,37,38,39,40,41,42,43,44,45,46,47,48,49,50,51,52,53,54,55,56,57,58,59,60,61,62,63,64,65,66,67,68,69,70,71,72,73,74,75,76,77,78,79,80,81,82,83,84,85,86,87,88,89,90,91,92,93,94,95,96,97,98,99,100],"tree_info":[0,0,0,0,0,0,0,0,0,0,0,0,0,0,0,0,0,0,0,0,0,0,0,0,0,0,0,0,0,0,0,0,0,0,0,0,0,0,0,0,0,0,0,0,0,0,0,0,0,0,0,0,0,0,0,0,0,0,0,0,0,0,0,0,0,0,0,0,0,0,0,0,0,0,0,0,0,0,0,0,0,0,0,0,0,0,0,0,0,0,0,0,0,0,0,0,0,0,0,0],"trees":[{"base_weights":[-3.6741557E-7,-3.9521875E0,1.3611036E1,-8.378931E0,-9.281588E-1,1.0241086E1,2.0851957E1,-1.0978165E1,-7.0956573E0,1.1028317E0,-3.1080534E0,1.767096E1,5.909988E0,2.3938698E1,1.5697614E1,-1.1100538E1,-1.0330876E0,-4.868445E0,-8.418093E0,-1.0037386E0,6.8864546E0,-5.094388E0,-2.0611059E-2,1.15239E1,2.1233515E1,8.365498E0,-9.283055E-1,2.0136986E1,8.8682E0,1.724118E1,2.1259217E0,-3.5334833E0,-2.7964175E0,1.1669126E0,-5.150103E0,-7.5428467E0,-1.0111301E1,7.646108E-1,-4.460781E0,9.464732E0,3.9067435E0,-7.6248174E0,-3.871444E0,1.4654971E0,-6.9544086E0,1.2892834E1,-1.4436251E0,2.2356028E1,2.5563748E0,4.7002687E0,1.1896432E1,1.9242114E0,-3.5107636E0,6.3243546E0,5.556375E0,1.4842082E1,7.837777E0,8.6691254E-1,-2.4815656E-2,-2.0481274E0,-1.1325942E0,-2.7128775E0,-1.9376011E0,-1.2330877E0,-3.0956938E0,-4.4433388E-1,1.1705736E0,1.5367746E-1,-1.827547E0,2.1960049E0,4.035332E0,3.3962807E-1,1.7885823E0,-1.696874E0,-2.6350634E0,3.2341728E-1,-1.3970387E0,8.2351E-1,-8.055354E-1,-1.3308755E-1,-2.3765829E0,4.1532884E0,1.6877766E0,-2.4815656E-2,-6.248157E-1,7.0599704E0,4.058641E0,1.6251844E0,-4.7481567E-1,2.2980793E0,1.3677445E-2,4.648179E0,1.3849558E0,-2.5682685E-1,1.3288876E0,-1.2688905E0,8.7518436E-1,1.2518436E-1,2.3751845E0,4.567018E0,1.0251844E0],"categories":[],"categories_nodes":[],"categories_segments":[],"categories_sizes":[],"default_left":[0,0,0,0,0,0,0,0,0,0,0,0,0,0,0,0,0,0,0,0,0,0,0,0,0,0,0,0,0,0,0,0,0,0,0,0,0,0,0,0,0,0,0,0,0,0,0,0,0,0,0,0,0,0,0,0,0,0,0,0,0,0,0,0,0,0,0,0,0,0,0,0,0,0,0,0,0,0,0,0,0,0,0,0,0,0,0,0,0,0,0,0,0,0,0,0,0,0,0,0,0],"id":0,"left_children":[1,3,5,7,9,11,13,15,17,19,21,23,25,27,29,31,-1,33,35,37,39,41,43,45,47,49,51,53,-1,55,57,-1,-1,-1,59,61,63,65,67,69,71,73,75,77,79,81,83,85,87,89,91,93,95,-1,97,99,-1,-1,-1,-1,-1,-1,-1,-1,-1,-1,-1,-1,-1,-1,-1,-1,-1,-1,-1,-1,-1,-1,-1,-1,-1,-1,-1,-1,-1,-1,-1,-1,-1,-1,-1,-1,-1,-1,-1,-1,-1,-1,-1,-1,-1],"loss_changes":[5.115749E4,9.858148E3,5.008383E3,9.1942773E2,1.9470325E3,4.658132E3,6.901992E2,5.120996E1,5.569219E2,2.7847751E3,1.300026E3,9.378672E2,1.6029578E3,2.596621E2,5.499131E2,4.7597656E0,0E0,2.1244324E2,1.1046094E2,1.0304382E3,4.3165747E2,3.6968066E2,8.75759E2,4.091494E2,6.3470605E2,8.50001E2,1.9828458E2,2.5457227E2,0E0,1.451211E2,6.9867535E0,0E0,0E0,0E0,1.4944397E2,8.30874E1,7.4365234E0,7.948766E2,4.6546094E2,1.7512622E2,1.6432413E2,4.3840576E1,3.5097217E2,3.791311E2,9.097662E1,6.0396484E1,2.4369607E0,3.7578125E0,4.409871E1,4.9565228E2,8.451035E2,9.434758E1,7.703215E1,0E0,3.3095024E1,4.381787E1,0E0,0E0,0E0,0E0,0E0,0E0,0E0,0E0,0E0,0E0,0E0,0E0,0E0,0E0,0E0,0E0,0E0,0E0,0E0,0E0,0E0,0E0,0E0,0E0,0E0,0E0,0E0,0E0,0E0,0E0,0E0,0E0,0E0,0E0,0E0,0E0,0E0,0E0,0E0,0E0,0E0,0E0,0E0,0E0,0E0],"parents":[2147483647,0,0,1,1,2,2,3,3,4,4,5,5,6,6,7,7,8,8,9,9,10,10,11,11,12,12,13,13,14,14,15,15,17,17,18,18,19,19,20,20,21,21,22,22,23,23,24,24,25,25,26,26,27,27,29,29,30,30,34,34,35,35,36,36,37,37,38,38,39,39,40,40,41,41,42,42,43,43,44,44,45,45,46,46,47,47,48,48,49,49,50,50,51,51,52,52,54,54,55,55],"right_children":[2,4,6,8,10,12,14,16,18,20,22,24,26,28,30,32,-1,34,36,38,40,42,44,46,48,50,52,54,-1,56,58,-1,-1,-1,60,62,64,66,68,70,72,74,76,78,80,82,84,86,88,90,92,94,96,-1,98,100,-1,-1,-1,-1,-1,-1,-1,-1,-1,-1,-1,-1,-1,-1,-1,-1,-1,-1,-1,-1,-1,-1,-1,-1,-1,-1,-1,-1,-1,-1,-1,-1,-1,-1,-1,-1,-1,-1,-1,-1,-1,-1,-1,-1,-1],"split_conditions":[2.4666666E1,1.4E1,3.5333332E1,9.666667E0,1.8E1,2.5E1,3.9E1,1.8922419E1,1.1E1,1.8666666E1,2.0666666E1,2.6666666E1,4E1,3.9666668E1,2.2392462E1,9E0,-1.0330876E0,5E0,1.6E1,1.8E1,2.2E1,1.6333334E1,3.4E1,3.4E1,4.1E1,3.0666666E1,7E-1,5.1E1,8.8682E0,4.6666668E1,5.4E1,-3.5334833E0,-2.7964175E0,1.1669126E0,1.1333333E1,1.1666667E1,6E0,1.5666667E1,1.1E1,2.1666666E1,2.0333334E1,1.3E1,1.2E1,2.7E1,1.0105681E1,1.8922419E1,3.7E1,2.4E1,4.8E1,3.1E1,3.8E1,3.1666666E1,3.0991818E2,6.3243546E0,5.5E1,2.5081479E2,7.837777E0,8.6691254E-1,-2.4815656E-2,-2.0481274E0,-1.1325942E0,-2.7128775E0,-1.9376011E0,-1.2330877E0,-3.0956938E0,-4.4433388E-1,1.1705736E0,1.5367746E-1,-1.827547E0,2.1960049E0,4.035332E0,3.3962807E-1,1.7885823E0,-1.696874E0,-2.6350634E0,3.2341728E-1,-1.3970387E0,8.2351E-1,-8.055354E-1,-1.3308755E-1,-2.3765829E0,4.1532884E0,1.6877766E0,-2.4815656E-2,-6.248157E-1,7.0599704E0,4.058641E0,1.6251844E0,-4.7481567E-1,2.2980793E0,1.3677445E-2,4.648179E0,1.3849558E0,-2.5682685E-1,1.3288876E0,-1.2688905E0,8.7518436E-1,1.2518436E-1,2.3751845E0,4.567018E0,1.0251844E0],"split_indices":[3,3,3,3,1,1,1,4,1,3,3,3,1,3,6,3,0,1,1,0,0,3,1,0,0,3,5,0,0,3,0,0,0,0,3,3,0,3,1,3,3,0,0,0,6,4,0,1,0,0,0,3,7,0,0,7,0,0,0,0,0,0,0,0,0,0,0,0,0,0,0,0,0,0,0,0,0,0,0,0,0,0,0,0,0,0,0,0,0,0,0,0,0,0,0,0,0,0,0,0,0],"split_type":[0,0,0,0,0,0,0,0,0,0,0,0,0,0,0,0,0,0,0,0,0,0,0,0,0,0,0,0,0,0,0,0,0,0,0,0,0,0,0,0,0,0,0,0,0,0,0,0,0,0,0,0,0,0,0,0,0,0,0,0,0,0,0,0,0,0,0,0,0,0,0,0,0,0,0,0,0,0,0,0,0,0,0,0,0,0,0,0,0,0,0,0,0,0,0,0,0,0,0,0,0],"sum_hessian":[9.49E2,7.36E2,2.13E2,2.98E2,4.38E2,1.47E2,6.6E1,9.6E1,2.02E2,2.27E2,2.11E2,5.3E1,9.4E1,3.9E1,2.7E1,9.4E1,2E0,7.7E1,1.25E2,1.67E2,6E1,1.28E2,8.3E1,2.1E1,3.2E1,6.9E1,2.5E1,2.6E1,1.3E1,2.4E1,3E0,6.4E1,3E1,2E0,7.5E1,8.6E1,3.9E1,1.11E2,5.6E1,3.1E1,2.9E1,4E1,8.8E1,6.9E1,1.4E1,1.9E1,2E0,3E1,2E0,3.5E1,3.4E1,1.2E1,1.3E1,2.4E1,2E0,2.1E1,3E0,2E0,1E0,3.2E1,4.3E1,3.3E1,5.3E1,2E0,3.7E1,6.5E1,4.6E1,1.4E1,4.2E1,2.2E1,9E0,1.3E1,1.6E1,1.7E1,2.3E1,1.2E1,7.6E1,5.3E1,1.6E1,2E0,1.2E1,1.6E1,3E0,1E0,1E0,2.5E1,5E0,1E0,1E0,2.1E1,1.4E1,2.2E1,1.2E1,6E0,6E0,1.2E1,1E0,1E0,1E0,2E1,1E0],"tree_param":{"num_deleted":"0","num_feature":"8","num_nodes":"101","size_leaf_vector":"1"}},{"base_weights":[4.1691683E-2,-2.6822479E0,1.0205438E1,-4.910298E0,6.208834E-1,7.713861E0,1.5073459E1,-7.117497E0,-3.6473138E0,4.227866E0,-1.046863E0,1.1283457E1,1.9781947E0,1.8993736E1,1.2443683E1,-5.778328E0,-7.8899984E0,-1.640743E0,-5.038643E0,2.9722965E0,8.083705E0,-6.913203E-2,-5.151604E0,1.2613216E1,2.364609E0,3.842427E0,-1.5600331E0,4.461842E0,2.2886482E1,1.2743309E1,-2.1093179E-2,-5.9106283E0,-1.16211E0,-3.1759644E-1,-7.9483085E0,1.0558244E0,-2.7317915E0,-4.536103E0,-6.97226E0,3.9756358E0,-2.5429268E0,8.539966E0,-2.9310295E-1,-1.7180601E0,2.8784466E0,-6.9241815E0,-3.0328183E0,5.25236E0,1.0528194E1,-1.813484E0,2.572991E0,6.410703E-1,6.5045657E0,-3.594359E0,6.3029593E-1,7.46062E0,9.310908E0,1.0973009E1,6.0081697E0,-6.764305E-1,-1.7989019E0,-6.5535307E-1,1.3240357E-1,-8.0009747E-1,-2.4089122E0,-3.8037428E-1,1.077251E0,-1.2996578E0,-1.6155267E-1,-1.1339126E0,-1.7712295E0,-2.1339002E0,-3.7028447E-1,2.0824268E0,8.7126434E-1,-1.0685573E0,-1.2121583E-1,2.6668093E0,1.0091962E0,-2.3445469E-1,-1.7539822E0,1.3242134E0,-3.1054515E-1,-1.5212059E-1,-2.2718937E0,-1.7548983E-1,-1.4947283E0,2.2999277E0,4.263664E0,-1.353664E0,2.124589E-1,8.5111684E-1,-4.878436E-1,2.4444938E0,7.5680083E-1,-3.9424583E-1,-1.3151562E0,1.1871418E0,-6.741369E-1,3.4449544E0,7.4495435E-1,3.5280344E0,5.208428E-1],"categories":[],"categories_nodes":[],"categories_segments":[],"categories_sizes":[],"default_left":[0,0,0,0,0,0,0,0,0,0,0,0,0,0,0,0,0,0,0,0,0,0,0,0,0,0,0,0,0,0,0,0,0,0,0,0,0,0,0,0,0,0,0,0,0,0,0,0,0,0,0,0,0,0,0,0,0,0,0,0,0,0,0,0,0,0,0,0,0,0,0,0,0,0,0,0,0,0,0,0,0,0,0,0,0,0,0,0,0,0,0,0,0,0,0,0,0,0,0,0,0,0,0],"id":1,"left_children":[1,3,5,7,9,11,13,15,17,19,21,23,25,27,29,31,33,35,37,39,41,43,45,47,49,51,53,-1,55,57,-1,59,61,-1,63,65,67,69,71,73,75,77,-1,79,81,83,85,-1,87,89,-1,91,93,95,97,-1,99,101,-1,-1,-1,-1,-1,-1,-1,-1,-1,-1,-1,-1,-1,-1,-1,-1,-1,-1,-1,-1,-1,-1,-1,-1,-1,-1,-1,-1,-1,-1,-1,-1,-1,-1,-1,-1,-1,-1,-1,-1,-1,-1,-1,-1,-1],"loss_changes":[2.6328533E4,5.522706E3,2.321662E3,1.2229102E3,1.8271323E3,2.7416714E3,4.5438086E2,1.22E2,7.929795E2,4.4073535E2,8.34417E2,9.545488E2,3.555865E2,6.0657227E1,1.62125E2,3.1606934E1,3.1419434E1,3.529925E2,1.3259375E2,4.1959906E2,1.0342639E2,8.263437E2,1.2922864E2,5.504658E2,3.270067E2,2.941161E2,8.692652E1,0E0,6.4461426E1,3.2181982E2,0E0,5.59375E0,5.8822417E0,0E0,2.1144043E1,2.1072757E2,2.9602826E2,1.19444336E2,1.787024E1,1.800299E2,2.4713188E1,9.882935E0,0E0,4.1688672E2,3.711615E2,8.359155E1,9.253255E1,0E0,4.4981104E2,5.763819E1,0E0,8.9252594E1,1.0380383E2,1.2241058E1,1.04619385E2,0E0,1.5980255E1,2.413164E2,0E0,0E0,0E0,0E0,0E0,0E0,0E0,0E0,0E0,0E0,0E0,0E0,0E0,0E0,0E0,0E0,0E0,0E0,0E0,0E0,0E0,0E0,0E0,0E0,0E0,0E0,0E0,0E0,0E0,0E0,0E0,0E0,0E0,0E0,0E0,0E0,0E0,0E0,0E0,0E0,0E0,0E0,0E0,0E0,0E0],"parents":[2147483647,0,0,1,1,2,2,3,3,4,4,5,5,6,6,7,7,8,8,9,9,10,10,11,11,12,12,13,13,14,14,15,15,16,16,17,17,18,18,19,19,20,20,21,21,22,22,23,23,24,24,25,25,26,26,28,28,29,29,31,31,32,32,34,34,35,35,36,36,37,37,38,38,39,39,40,40,41,41,43,43,44,44,45,45,46,46,48,48,49,49,51,51,52,52,53,53,54,54,56,56,57,57],"right_children":[2,4,6,8,10,12,14,16,18,20,22,24,26,28,30,32,34,36,38,40,42,44,46,48,50,52,54,-1,56,58,-1,60,62,-1,64,66,68,70,72,74,76,78,-1,80,82,84,86,-1,88,90,-1,92,94,96,98,-1,100,102,-1,-1,-1,-1,-1,-1,-1,-1,-1,-1,-1,-1,-1,-1,-1,-1,-1,-1,-1,-1,-1,-1,-1,-1,-1,-1,-1,-1,-1,-1,-1,-1,-1,-1,-1,-1,-1,-1,-1,-1,-1,-1,-1,-1,-1],"split_conditions":[2.5333334E1,1.6333334E1,3.5333332E1,1.1333333E1,1.7E1,3.2E1,3.5E1,2.4630963E2,1.3E1,2.0666666E1,3E1,3.9E1,7E-1,3.8666668E1,7.1E1,2.4115741E2,9.796366E0,1.2E1,2.1E1,2.5E1,3.3E1,2.1333334E1,2.2666666E1,1.9E1,3.2E1,3.1666666E1,3E1,4.461842E0,2.8E1,4.5E1,-2.1093179E-2,5E0,7E0,-3.1759644E-1,-8.960917E0,1.2666667E1,1.4333333E1,1.5E1,3.022553E1,1.1E1,1.9333334E1,3E1,-2.9310295E-1,2.3E1,2.7E1,8E0,3.4E1,5.25236E0,3.0333334E1,2.7E1,2.572991E0,3.2E1,2.1494374E2,2.7E1,8.062E0,7.46062E0,4.4E1,5.3E1,6.0081697E0,-6.764305E-1,-1.7989019E0,-6.5535307E-1,1.3240357E-1,-8.0009747E-1,-2.4089122E0,-3.8037428E-1,1.077251E0,-1.2996578E0,-1.6155267E-1,-1.1339126E0,-1.7712295E0,-2.1339002E0,-3.7028447E-1,2.0824268E0,8.7126434E-1,-1.0685573E0,-1.2121583E-1,2.6668093E0,1.0091962E0,-2.3445469E-1,-1.7539822E0,1.3242134E0,-3.1054515E-1,-1.5212059E-1,-2.2718937E0,-1.7548983E-1,-1.4947283E0,2.2999277E0,4.263664E0,-1.353664E0,2.124589E-1,8.5111684E-1,-4.878436E-1,2.4444938E0,7.5680083E-1,-3.9424583E-1,-1.3151562E0,1.1871418E0,-6.741369E-1,3.4449544E0,7.4495435E-1,3.5280344E0,5.208428E-1],"split_indices":[3,3,3,3,1,1,1,7,1,3,1,0,5,3,1,7,6,0,1,0,0,3,3,1,3,3,2,0,2,3,0,2,0,0,4,3,3,0,6,1,3,0,0,0,0,0,1,0,3,1,0,2,7,0,4,0,0,0,0,0,0,0,0,0,0,0,0,0,0,0,0,0,0,0,0,0,0,0,0,0,0,0,0,0,0,0,0,0,0,0,0,0,0,0,0,0,0,0,0,0,0,0,0],"split_type":[0,0,0,0,0,0,0,0,0,0,0,0,0,0,0,0,0,0,0,0,0,0,0,0,0,0,0,0,0,0,0,0,0,0,0,0,0,0,0,0,0,0,0,0,0,0,0,0,0,0,0,0,0,0,0,0,0,0,0,0,0,0,0,0,0,0,0,0,0,0,0,0,0,0,0,0,0,0,0,0,0,0,0,0,0,0,0,0,0,0,0,0,0,0,0,0,0,0,0,0,0,0,0],"sum_hessian":[9.49E2,7.49E2,2E2,4.47E2,3.02E2,1.34E2,6.6E1,1.61E2,2.86E2,9.5E1,2.07E2,8.2E1,5.2E1,2.4E1,4.2E1,6.2E1,9.9E1,1.18E2,1.68E2,7.3E1,2.2E1,1.68E2,3.9E1,7.1E1,1.1E1,3.4E1,1.8E1,1.4E1,1E1,4.1E1,1E0,6E1,2E0,1E0,9.8E1,3.4E1,8.4E1,1.36E2,3.2E1,6.2E1,1.1E1,2.1E1,1E0,1.08E2,6E1,2E1,1.9E1,1.9E1,5.2E1,7E0,4E0,1.6E1,1.8E1,9E0,9E0,8E0,2E0,3.5E1,6E0,2E0,5.8E1,1E0,1E0,2E0,9.6E1,1.8E1,1.6E1,4.8E1,3.6E1,9E1,4.6E1,3.1E1,1E0,1.5E1,4.7E1,7E0,4E0,1.9E1,2E0,8.9E1,1.9E1,4.3E1,1.7E1,2E0,1.8E1,9E0,1E1,3.1E1,2.1E1,3E0,4E0,8E0,8E0,1.2E1,6E0,3E0,6E0,4E0,5E0,1E0,1E0,3.2E1,3E0],"tree_param":{"num_deleted":"0","num_feature":"8","num_nodes":"103","size_leaf_vector":"1"}},{"base_weights":[5.9861753E-2,-1.8425196E0,7.6292334E0,-4.0805154E0,-5.9389822E-2,5.7927203E0,1.0941694E1,-5.9608693E0,-3.5287774E0,7.3201615E-1,-3.0465024E0,9.10319E0,2.1702082E0,1.6387596E1,9.698771E0,-6.053231E0,-5.17936E-1,-2.9262278E0,-5.213644E0,-1.2027941E-1,4.5005527E0,-1.6511687E0,-5.1521263E0,1.282836E1,6.757779E0,3.9923985E0,-6.134415E-1,5.857009E0,2.6160007E0,7.6674523E0,1.2581895E1,-6.40078E-1,-6.133592E0,-1.1240366E0,-3.3110268E0,-6.0656233E0,-4.4245925E0,3.3098853E0,-6.674474E-1,7.4569087E0,2.688134E0,-6.723587E-1,-3.6258137E0,3.3485985E-1,-5.6769958E0,2.7689219E0,4.6973505E0,4.8630033E0,1.0610509E1,6.7161574E0,2.4163477E0,1.3346951E0,-1.7926868E0,8.683395E0,3.0262258E0,1.3559085E1,1.8733273E0,-1.6303469E0,-2.1039379E0,-8.1882447E-1,8.902099E-2,-1.1728764E0,-5.328047E-1,-4.4037467E-1,-1.8520643E0,-9.126961E-1,-1.5485249E0,1.6885928E0,2.8247142E-1,-6.102433E-1,2.2189578E-1,7.4086076E-1,2.34429E0,1.132012E0,-4.7561597E-2,-5.790857E-1,7.7722824E-1,-4.6973992E-2,-1.1462027E0,1.6525993E-1,-4.6973992E-2,-1.8304924E0,-8.459779E-1,1.756234E0,-3.7901023E-1,3.52641E0,1.5292214E0,2.182143E0,3.649235E-3,-2.043262E-1,1.358013E0,6.2559056E-1,-8.1311506E-1,-6.4910454E-1,5.658354E-1,3.1359124E0,1.7103872E0,1.1790829E0,6.2814906E-2,4.2431827E0,3.670209E-1,8.6092645E-1,-1.7929174E-2],"categories":[],"categories_nodes":[],"categories_segments":[],"categories_sizes":[],"default_left":[0,0,0,0,0,0,0,0,0,0,0,0,0,0,0,0,0,0,0,0,0,0,0,0,0,0,0,0,0,0,0,0,0,0,0,0,0,0,0,0,0,0,0,0,0,0,0,0,0,0,0,0,0,0,0,0,0,0,0,0,0,0,0,0,0,0,0,0,0,0,0,0,0,0,0,0,0,0,0,0,0,0,0,0,0,0,0,0,0,0,0,0,0,0,0,0,0,0,0,0,0,0,0],"id":2,"left_children":[1,3,5,7,9,11,13,15,17,19,21,23,25,27,29,31,-1,33,35,37,39,41,43,45,47,49,51,-1,-1,53,55,-1,57,59,61,63,65,67,69,71,73,75,77,79,81,-1,-1,83,85,87,89,91,93,95,97,99,101,-1,-1,-1,-1,-1,-1,-1,-1,-1,-1,-1,-1,-1,-1,-1,-1,-1,-1,-1,-1,-1,-1,-1,-1,-1,-1,-1,-1,-1,-1,-1,-1,-1,-1,-1,-1,-1,-1,-1,-1,-1,-1,-1,-1,-1,-1],"loss_changes":[1.3693896E4,3.0326418E3,1.098544E3,3.2858984E2,1.004574E3,1.4792705E3,2.9457178E2,1.8881836E1,2.517456E2,1.0797421E3,2.5297925E2,4.812173E2,3.1186182E2,9.423804E1,2.3735205E2,9.907715E0,0E0,1.3220068E2,1.8875488E1,5.1835016E2,3.121604E2,1.0386629E2,1.0269928E2,9.985547E1,2.5500366E2,1.4260437E2,5.9825962E1,0E0,0E0,1.4347021E2,2.0481421E2,0E0,5.5439453E0,8.2921524E1,1.4098291E2,5.8238525E0,2.403534E1,2.0337894E2,4.5919748E2,2.1698486E1,1.2417105E2,1.6098201E2,1.157016E1,5.1087165E-1,2.1617432E1,0E0,0E0,1.8955298E2,2.2085938E1,4.8511963E1,1.6650089E2,3.6014603E1,2.5918045E1,9.3444824E1,1.9549606E1,1.2698828E2,5.9500637E0,0E0,0E0,0E0,0E0,0E0,0E0,0E0,0E0,0E0,0E0,0E0,0E0,0E0,0E0,0E0,0E0,0E0,0E0,0E0,0E0,0E0,0E0,0E0,0E0,0E0,0E0,0E0,0E0,0E0,0E0,0E0,0E0,0E0,0E0,0E0,0E0,0E0,0E0,0E0,0E0,0E0,0E0,0E0,0E0,0E0,0E0],"parents":[2147483647,0,0,1,1,2,2,3,3,4,4,5,5,6,6,7,7,8,8,9,9,10,10,11,11,12,12,13,13,14,14,15,15,17,17,18,18,19,19,20,20,21,21,22,22,23,23,24,24,25,25,26,26,29,29,30,30,32,32,33,33,34,34,35,35,36,36,37,37,38,38,39,39,40,40,41,41,42,42,43,43,44,44,47,47,48,48,49,49,50,50,51,51,52,52,53,53,54,54,55,55,56,56],"right_children":[2,4,6,8,10,12,14,16,18,20,22,24,26,28,30,32,-1,34,36,38,40,42,44,46,48,50,52,-1,-1,54,56,-1,58,60,62,64,66,68,70,72,74,76,78,80,82,-1,-1,84,86,88,90,92,94,96,98,100,102,-1,-1,-1,-1,-1,-1,-1,-1,-1,-1,-1,-1,-1,-1,-1,-1,-1,-1,-1,-1,-1,-1,-1,-1,-1,-1,-1,-1,-1,-1,-1,-1,-1,-1,-1,-1,-1,-1,-1,-1,-1,-1,-1,-1,-1,-1],"split_conditions":[2.6E1,1.4666667E1,3.5333332E1,9.333333E0,2.5E1,3E1,1.6E1,1.8922419E1,1.5E1,2.1666666E1,2.3909697E2,2.8E1,4E1,1.8445389E1,4.0333332E1,-8.960917E0,-5.17936E-1,9E0,1.2666667E1,1.1E1,2.3E1,2.1E1,-3.738E0,2.8666666E1,3.2E1,3.1E1,1E-1,5.857009E0,2.6160007E0,4.6E1,4.4E1,-6.40078E-1,9E0,1.0333333E1,1.3333333E1,9.3876505E0,1.2E1,1.7E1,1.7333334E1,2.2E1,3E1,2.3333334E1,-2.967167E0,2.3E1,2.4E1,2.7689219E0,4.6973505E0,4.1E1,4.1E1,1.9116165E1,3.1666666E1,4.7E1,3.0991818E2,3.8E1,1.6391863E1,2.3904108E1,5.2E1,-1.6303469E0,-2.1039379E0,-8.1882447E-1,8.902099E-2,-1.1728764E0,-5.328047E-1,-4.4037467E-1,-1.8520643E0,-9.126961E-1,-1.5485249E0,1.6885928E0,2.8247142E-1,-6.102433E-1,2.2189578E-1,7.4086076E-1,2.34429E0,1.132012E0,-4.7561597E-2,-5.790857E-1,7.7722824E-1,-4.6973992E-2,-1.1462027E0,1.6525993E-1,-4.6973992E-2,-1.8304924E0,-8.459779E-1,1.756234E0,-3.7901023E-1,3.52641E0,1.5292214E0,2.182143E0,3.649235E-3,-2.043262E-1,1.358013E0,6.2559056E-1,-8.1311506E-1,-6.4910454E-1,5.658354E-1,3.1359124E0,1.7103872E0,1.1790829E0,6.2814906E-2,4.2431827E0,3.670209E-1,8.6092645E-1,-1.7929174E-2],"split_indices":[3,3,3,3,1,1,2,4,1,3,7,0,1,6,3,4,0,0,3,1,0,0,4,3,3,0,5,0,0,0,2,0,1,3,3,6,0,0,3,3,0,3,4,2,3,0,0,0,0,4,3,2,7,1,6,6,0,0,0,0,0,0,0,0,0,0,0,0,0,0,0,0,0,0,0,0,0,0,0,0,0,0,0,0,0,0,0,0,0,0,0,0,0,0,0,0,0,0,0,0,0,0,0],"split_type":[0,0,0,0,0,0,0,0,0,0,0,0,0,0,0,0,0,0,0,0,0,0,0,0,0,0,0,0,0,0,0,0,0,0,0,0,0,0,0,0,0,0,0,0,0,0,0,0,0,0,0,0,0,0,0,0,0,0,0,0,0,0,0,0,0,0,0,0,0,0,0,0,0,0,0,0,0,0,0,0,0,0,0,0,0,0,0,0,0,0,0,0,0,0,0,0,0,0,0,0,0,0,0],"sum_hessian":[9.49E2,7.59E2,1.9E2,3.36E2,4.23E2,1.24E2,6.6E1,7.4E1,2.62E2,3.35E2,8.8E1,6.4E1,6E1,1E1,5.6E1,7.2E1,2E0,1.95E2,6.7E1,2.74E2,6.1E1,5.4E1,3.4E1,2.3E1,4.1E1,3.6E1,2.4E1,6E0,4E0,3.5E1,2.1E1,2E0,7E1,3.5E1,1.6E2,2.9E1,3.8E1,3.7E1,2.37E2,2.2E1,3.9E1,3.7E1,1.7E1,3E0,3.1E1,1.2E1,1.1E1,2.9E1,1.2E1,1.2E1,2.4E1,9E0,1.5E1,2.8E1,7E0,1.9E1,2E0,4.3E1,2.7E1,1.6E1,1.9E1,1.14E2,4.6E1,1E0,2.8E1,1.5E1,2.3E1,1.8E1,1.9E1,1.2E2,1.17E2,2E0,2E1,2.8E1,1.1E1,2.7E1,1E1,1E0,1.6E1,2E0,1E0,2.6E1,5E0,2.5E1,4E0,9E0,3E0,1.1E1,1E0,1E1,1.4E1,8E0,1E0,1.4E1,1E0,1.6E1,1.2E1,5E0,2E0,1.8E1,1E0,1E0,1E0],"tree_param":{"num_deleted":"0","num_feature":"8","num_nodes":"103","size_leaf_vector":"1"}},{"base_weights":[7.04295E-2,-1.4484116E0,5.057658E0,-2.7300372E0,-2.9647944E-2,3.1058648E0,7.0525827E0,-1.8911453E0,-3.4568534E0,1.5077605E0,-1.5319469E0,6.9931464E0,1.0702088E0,9.78619E0,4.9012794E0,-2.519899E0,-1.1746022E0,-1.8136016E0,-3.846588E0,4.754939E0,1.0246764E0,-3.0162323E0,-8.6785454E-1,3.3300886E0,5.1941195E0,3.8405046E0,2.0689458E-1,1.2723578E1,7.8596807E0,2.3795202E0,7.269874E0,-1.8704449E0,-3.1433742E0,1.2775793E0,-2.0375016E0,1.4709816E0,-2.0197592E0,-4.1138244E0,-2.2699544E0,1.8157306E0,2.2082856E0,-7.006998E-2,3.448585E0,-1.3475724E0,-4.408264E0,6.5241396E-1,-1.8833352E0,6.2637796E0,3.1567857E0,5.3840075E0,-1.4383538E-1,-1.2881658E0,1.908146E0,5.215476E0,9.332608E0,4.865276E0,8.863515E0,3.1749935E0,-4.0377378E-1,9.7508545E0,5.293743E0,-7.783827E-1,-2.3440194E-1,-7.118303E-1,-1.1953409E0,4.7160962E-1,-7.800571E-1,-3.5145333E-1,-1.1264803E0,6.595373E-2,5.9598804E-1,-9.2847335E-1,-4.281863E-1,-1.0120139E0,-1.3633615E0,5.3328896E-1,-8.6255664E-1,9.148279E-1,3.8384333E-1,2.6408312E-1,-4.7250265E-1,1.5208529E0,5.0519097E-1,1.8589115E-1,-1.2259386E0,-1.4078218E0,-4.3713298E-1,1.0946606E0,-1.8426941E-1,-3.3252552E-1,-1.3249154E0,1.105641E0,2.091582E0,1.3527514E0,4.6398878E-1,3.3375752E-1,1.6941763E0,-3.4192944E-1,8.499104E-2,-1.432511E-1,-1.4164355E0,1.0583268E0,-1.6359408E-1,3.0353224E0,1.08139E0,1.5335221E0,3.970648E-1,2.7422144E0,4.5634863E-1,1.3975624E0,5.029788E-1,-7.5741315E-1,4.1211912E-1,3.5412877E0,1.2313488E0,2.0232723E0,8.3146596E-1],"categories":[],"categories_nodes":[],"categories_segments":[],"categories_sizes":[],"default_left":[0,0,0,0,0,0,0,0,0,0,0,0,0,0,0,0,0,0,0,0,0,0,0,0,0,0,0,0,0,0,0,0,0,0,0,0,0,0,0,0,0,0,0,0,0,0,0,0,0,0,0,0,0,0,0,0,0,0,0,0,0,0,0,0,0,0,0,0,0,0,0,0,0,0,0,0,0,0,0,0,0,0,0,0,0,0,0,0,0,0,0,0,0,0,0,0,0,0,0,0,0,0,0,0,0,0,0,0,0,0,0,0,0,0,0,0,0],"id":3,"left_children":[1,3,5,7,9,11,13,15,17,19,21,23,25,27,29,31,33,35,37,39,41,43,45,-1,47,49,51,53,55,57,59,61,63,65,67,69,71,73,75,-1,77,79,81,83,85,87,89,91,93,95,97,99,101,-1,103,105,107,109,111,113,115,-1,-1,-1,-1,-1,-1,-1,-1,-1,-1,-1,-1,-1,-1,-1,-1,-1,-1,-1,-1,-1,-1,-1,-1,-1,-1,-1,-1,-1,-1,-1,-1,-1,-1,-1,-1,-1,-1,-1,-1,-1,-1,-1,-1,-1,-1,-1,-1,-1,-1,-1,-1,-1,-1,-1,-1],"loss_changes":[7.203393E3,1.325477E3,8.424927E2,2.2698535E2,8.037574E2,8.9461707E2,5.9304395E2,7.8135376E1,1.23671875E2,2.6493723E2,1.70866E2,2.3050977E2,1.8096973E2,1.6596533E2,3.5900183E2,3.258777E1,1.8457788E2,3.0733856E1,5.9760498E1,5.932846E1,4.0093E2,1.1949222E2,1.9111652E2,0E0,4.3424927E1,1.1147153E2,1.5252296E2,1.0646338E2,5.0059082E1,7.213112E1,1.05269165E2,3.6618576E1,2.1009003E1,3.0349434E1,9.078702E1,1.4986749E0,2.0425552E1,2.8999512E1,6.880417E1,0E0,3.12965E0,1.5155891E2,1.2589758E2,1.4261932E2,1.7508545E1,1.9201352E2,1.4035962E2,7.1705933E0,1.91566E1,8.335205E0,2.8753002E0,8.6809006E1,1.1318587E2,0E0,1.749585E1,1.96344E0,3.087207E1,4.7763123E1,3.362806E1,1.022771E2,5.4476562E1,0E0,0E0,0E0,0E0,0E0,0E0,0E0,0E0,0E0,0E0,0E0,0E0,0E0,0E0,0E0,0E0,0E0,0E0,0E0,0E0,0E0,0E0,0E0,0E0,0E0,0E0,0E0,0E0,0E0,0E0,0E0,0E0,0E0,0E0,0E0,0E0,0E0,0E0,0E0,0E0,0E0,0E0,0E0,0E0,0E0,0E0,0E0,0E0,0E0,0E0,0E0,0E0,0E0,0E0,0E0,0E0],"parents":[2147483647,0,0,1,1,2,2,3,3,4,4,5,5,6,6,7,7,8,8,9,9,10,10,11,11,12,12,13,13,14,14,15,15,16,16,17,17,18,18,19,19,20,20,21,21,22,22,24,24,25,25,26,26,27,27,28,28,29,29,30,30,31,31,32,32,33,33,34,34,35,35,36,36,37,37,38,38,40,40,41,41,42,42,43,43,44,44,45,45,46,46,47,47,48,48,49,49,50,50,51,51,52,52,54,54,55,55,56,56,57,57,58,58,59,59,60,60],"right_children":[2,4,6,8,10,12,14,16,18,20,22,24,26,28,30,32,34,36,38,40,42,44,46,-1,48,50,52,54,56,58,60,62,64,66,68,70,72,74,76,-1,78,80,82,84,86,88,90,92,94,96,98,100,102,-1,104,106,108,110,112,114,116,-1,-1,-1,-1,-1,-1,-1,-1,-1,-1,-1,-1,-1,-1,-1,-1,-1,-1,-1,-1,-1,-1,-1,-1,-1,-1,-1,-1,-1,-1,-1,-1,-1,-1,-1,-1,-1,-1,-1,-1,-1,-1,-1,-1,-1,-1,-1,-1,-1,-1,-1,-1,-1,-1,-1,-1],"split_conditions":[2.4333334E1,1.5333333E1,3.2E1,2.3819313E2,1.9E1,2.3E1,3.5E1,1.2666667E1,1.3910169E1,1.4E1,1.8E1,2.5E1,2.4E1,1.8E1,3.8666668E1,1E1,1.1E1,9.114471E0,1.4333333E1,1.6E1,2E1,1.4E1,1.9E1,3.3300886E0,3E1,3.8E1,2.9333334E1,3.114083E0,3.3666668E1,9E-1,3.2E1,1.0333333E1,1E1,1.8E1,1.5E1,1.3E1,1.0333333E1,1E1,1.2E1,1.8157306E0,9.539518E1,2E1,2.2E1,2.5E1,1.4368252E1,2.4E1,1.9602652E1,2.6E1,1.8E1,2.4E1,2.6E1,2.026899E1,3.4E1,5.215476E0,1.2E0,3.1E1,5.3E1,3.7E1,1.7899269E2,3.1E0,1.662249E1,-7.783827E-1,-2.3440194E-1,-7.118303E-1,-1.1953409E0,4.7160962E-1,-7.800571E-1,-3.5145333E-1,-1.1264803E0,6.595373E-2,5.9598804E-1,-9.2847335E-1,-4.281863E-1,-1.0120139E0,-1.3633615E0,5.3328896E-1,-8.6255664E-1,9.148279E-1,3.8384333E-1,2.6408312E-1,-4.7250265E-1,1.5208529E0,5.0519097E-1,1.8589115E-1,-1.2259386E0,-1.4078218E0,-4.3713298E-1,1.0946606E0,-1.8426941E-1,-3.3252552E-1,-1.3249154E0,1.105641E0,2.091582E0,1.3527514E0,4.6398878E-1,3.3375752E-1,1.6941763E0,-3.4192944E-1,8.499104E-2,-1.432511E-1,-1.4164355E0,1.0583268E0,-1.6359408E-1,3.0353224E0,1.08139E0,1.5335221E0,3.970648E-1,2.7422144E0,4.5634863E-1,1.3975624E0,5.029788E-1,-7.5741315E-1,4.1211912E-1,3.5412877E0,1.2313488E0,2.0232723E0,8.3146596E-1],"split_indices":[3,3,3,7,1,1,1,3,6,0,3,0,0,2,3,1,1,6,3,1,3,0,0,0,0,1,3,4,3,5,2,3,0,0,0,0,3,1,0,0,7,0,0,1,4,1,6,3,1,1,3,6,1,0,5,1,0,0,7,5,6,0,0,0,0,0,0,0,0,0,0,0,0,0,0,0,0,0,0,0,0,0,0,0,0,0,0,0,0,0,0,0,0,0,0,0,0,0,0,0,0,0,0,0,0,0,0,0,0,0,0,0,0,0,0,0,0],"split_type":[0,0,0,0,0,0,0,0,0,0,0,0,0,0,0,0,0,0,0,0,0,0,0,0,0,0,0,0,0,0,0,0,0,0,0,0,0,0,0,0,0,0,0,0,0,0,0,0,0,0,0,0,0,0,0,0,0,0,0,0,0,0,0,0,0,0,0,0,0,0,0,0,0,0,0,0,0,0,0,0,0,0,0,0,0,0,0,0,0,0,0,0,0,0,0,0,0,0,0,0,0,0,0,0,0,0,0,0,0,0,0,0,0,0,0,0,0],"sum_hessian":[9.49E2,7.28E2,2.21E2,3.82E2,3.46E2,1.13E2,1.08E2,1.79E2,2.03E2,1.71E2,1.75E2,3.8E1,7.5E1,4.6E1,6.2E1,9.4E1,8.5E1,4E1,1.63E2,2.1E1,1.5E2,5.3E1,1.22E2,1E1,2.8E1,1.7E1,5.8E1,1.6E1,3E1,3.1E1,3.1E1,4.8E1,4.6E1,2.2E1,6.3E1,2E0,3.8E1,1.38E2,2.5E1,1.3E1,8E0,1.04E2,4.6E1,2.5E1,2.8E1,4.9E1,7.3E1,1.7E1,1.1E1,1.2E1,5E0,3.1E1,2.7E1,5E0,1.1E1,9E0,2.1E1,2.4E1,7E0,1.2E1,1.9E1,2.8E1,2E1,2.6E1,2E1,2.1E1,1E0,4.3E1,2E1,1E0,1E0,1.2E1,2.6E1,5.4E1,8.4E1,3E0,2.2E1,3E0,5E0,6.4E1,4E1,2.3E1,2.3E1,1.5E1,1E1,2.5E1,3E0,1.4E1,3.5E1,5.7E1,1.6E1,5E0,1.2E1,5E0,6E0,1E0,1.1E1,1E0,4E0,2.6E1,5E0,1.6E1,1.1E1,9E0,2E0,8E0,1E0,2E1,1E0,1.1E1,1.3E1,3E0,4E0,8E0,4E0,1.1E1,8E0],"tree_param":{"num_deleted":"0","num_feature":"8","num_nodes":"117","size_leaf_vector":"1"}},{"base_weights":[7.6972395E-2,-1.1353419E0,3.4576218E0,-2.1899896E0,-3.4809053E-1,2.0661032E0,5.085278E0,-3.3364382E0,-1.8635678E0,6.231772E-1,-1.2128453E0,6.40073E0,1.041403E0,9.162964E0,4.2341304E0,-2.512287E0,-3.8214548E0,-7.426822E-1,-2.3640738E0,-5.610456E-1,1.7173723E0,-9.060391E-1,-3.2075996E0,6.902696E0,2.911934E0,1.9482241E0,-1.0962516E0,3.5927298E0,6.028584E0,2.736208E0,6.300265E0,-1.7782742E0,-3.4182804E0,-2.4509678E0,-1.2628561E0,9.673426E-1,-1.19383E0,-2.0250092E0,-3.3153377E0,1.0124594E0,-2.458372E0,2.6070275E0,-3.182269E-1,-4.0626588E-1,-2.0890214E0,-2.2796853E0,-4.649877E0,1.5952355E0,8.601666E0,1.9798966E-1,9.929804E-1,2.9326582E0,-9.103401E-1,8.6789787E-1,-1.5481372E0,6.522837E-1,6.64351E0,3.4704578E0,-7.2384834E-2,8.41692E0,4.1858687E0,-9.073444E-1,-2.4707158E-1,-3.1800655E-1,-1.1473674E0,-6.364846E-2,-7.960897E-1,-1.4539766E-1,6.451584E-1,-4.6429703E-1,9.628876E-2,-1.7255075E-1,-6.668647E-1,-3.403623E-1,-1.0760134E0,6.5472436E-1,7.487941E-2,-4.0435484E-1,-1.2036626E0,4.577042E-1,1.0841664E0,-6.7278486E-1,2.1148205E-1,-4.3315282E-1,8.586213E-2,-8.392452E-1,-2.6975074E-1,-4.2282784E-1,-1.1791027E0,-2.6116192E-1,-1.4919231E0,2.728248E0,6.992592E-1,5.875008E-1,1.4642378E0,-6.4859366E-1,2.9961944E-1,3.709489E-1,-2.0155393E-1,-1.1676356E0,-2.6080608E-1,2.2013304E0,8.427212E-1,1.2104981E0,-7.5371936E-2,4.55873E-1,-2.8462955E-1,2.886488E0,9.35825E-1,1.7579881E0,6.9073904E-1],"categories":[],"categories_nodes":[],"categories_segments":[],"categories_sizes":[],"default_left":[0,0,0,0,0,0,0,0,0,0,0,0,0,0,0,0,0,0,0,0,0,0,0,0,0,0,0,0,0,0,0,0,0,0,0,0,0,0,0,0,0,0,0,0,0,0,0,0,0,0,0,0,0,0,0,0,0,0,0,0,0,0,0,0,0,0,0,0,0,0,0,0,0,0,0,0,0,0,0,0,0,0,0,0,0,0,0,0,0,0,0,0,0,0,0,0,0,0,0,0,0,0,0,0,0,0,0,0,0,0,0],"id":4,"left_children":[1,3,5,7,9,11,13,15,17,19,21,23,25,27,29,31,33,35,37,39,41,43,45,47,49,51,53,-1,55,57,59,61,63,65,-1,67,69,71,73,75,77,79,81,83,85,87,89,-1,91,-1,-1,93,95,97,99,-1,101,103,105,107,109,-1,-1,-1,-1,-1,-1,-1,-1,-1,-1,-1,-1,-1,-1,-1,-1,-1,-1,-1,-1,-1,-1,-1,-1,-1,-1,-1,-1,-1,-1,-1,-1,-1,-1,-1,-1,-1,-1,-1,-1,-1,-1,-1,-1,-1,-1,-1,-1,-1,-1],"loss_changes":[3.8974146E3,5.804287E2,5.5798706E2,1.056759E2,3.3839905E2,6.018461E2,3.6033447E2,1.6381653E1,1.3008154E2,2.4716E2,1.2745044E2,2.5432617E1,2.1924442E2,9.5314575E1,2.829674E2,1.1876633E1,1.0424316E1,5.824391E1,4.5537964E1,2.7715063E2,1.8011676E2,1.0911873E2,2.6872437E1,1.3513306E1,2.2969818E0,2.2498108E2,3.1521034E1,0E0,1.1626343E1,1.1985928E2,1.4378577E2,1.7734993E1,6.4850616E0,4.4280014E0,0E0,2.8530067E1,3.21192E1,3.3721344E1,2.0194946E1,4.4973476E1,6.706612E1,6.9611176E1,6.2619026E1,9.525444E1,4.3847733E1,2.175396E1,7.885544E0,0E0,6.597595E0,0E0,0E0,1.024303E2,5.233806E1,4.803566E0,4.1165947E1,0E0,3.346527E0,9.7661194E1,1.9578848E1,9.124292E1,5.5873535E1,0E0,0E0,0E0,0E0,0E0,0E0,0E0,0E0,0E0,0E0,0E0,0E0,0E0,0E0,0E0,0E0,0E0,0E0,0E0,0E0,0E0,0E0,0E0,0E0,0E0,0E0,0E0,0E0,0E0,0E0,0E0,0E0,0E0,0E0,0E0,0E0,0E0,0E0,0E0,0E0,0E0,0E0,0E0,0E0,0E0,0E0,0E0,0E0,0E0,0E0],"parents":[2147483647,0,0,1,1,2,2,3,3,4,4,5,5,6,6,7,7,8,8,9,9,10,10,11,11,12,12,13,13,14,14,15,15,16,16,17,17,18,18,19,19,20,20,21,21,22,22,23,23,24,24,25,25,26,26,28,28,29,29,30,30,31,31,32,32,33,33,35,35,36,36,37,37,38,38,39,39,40,40,41,41,42,42,43,43,44,44,45,45,46,46,48,48,51,51,52,52,53,53,54,54,56,56,57,57,58,58,59,59,60,60],"right_children":[2,4,6,8,10,12,14,16,18,20,22,24,26,28,30,32,34,36,38,40,42,44,46,48,50,52,54,-1,56,58,60,62,64,66,-1,68,70,72,74,76,78,80,82,84,86,88,90,-1,92,-1,-1,94,96,98,100,-1,102,104,106,108,110,-1,-1,-1,-1,-1,-1,-1,-1,-1,-1,-1,-1,-1,-1,-1,-1,-1,-1,-1,-1,-1,-1,-1,-1,-1,-1,-1,-1,-1,-1,-1,-1,-1,-1,-1,-1,-1,-1,-1,-1,-1,-1,-1,-1,-1,-1,-1,-1,-1,-1],"split_conditions":[2.3333334E1,1.4E1,3.1666666E1,9E0,1.7E1,1.9E1,2.6E1,8E0,1E1,1.6E1,3.0192297E2,3.3E1,3.4E1,6.5328336E0,3.8666668E1,7E0,-1.8442497E0,9E0,1.6E1,1.6E1,2.2E1,2.0466246E1,2.6E1,2.6333334E1,3.4E1,3.2E1,-1.2463332E0,3.5927298E0,8.809917E0,4.2E1,3.2E1,7.3333335E0,1.484318E1,8.699493E0,-1.2628561E0,1E1,1.5089084E1,8E0,7E0,1.2E1,2E1,1.7666666E1,1.8666666E1,1.8E1,2.5661207E1,2.4E1,1.6E1,1.5952355E0,8.000001E-1,1.9798966E-1,9.929804E-1,2.7333334E1,2.9E1,3E1,1.8974171E0,6.522837E-1,4.8E1,4.4E1,1E-1,4.700001E0,4.4E1,-9.073444E-1,-2.4707158E-1,-3.1800655E-1,-1.1473674E0,-6.364846E-2,-7.960897E-1,-1.4539766E-1,6.451584E-1,-4.6429703E-1,9.628876E-2,-1.7255075E-1,-6.668647E-1,-3.403623E-1,-1.0760134E0,6.5472436E-1,7.487941E-2,-4.0435484E-1,-1.2036626E0,4.577042E-1,1.0841664E0,-6.7278486E-1,2.1148205E-1,-4.3315282E-1,8.586213E-2,-8.392452E-1,-2.6975074E-1,-4.2282784E-1,-1.1791027E0,-2.6116192E-1,-1.4919231E0,2.728248E0,6.992592E-1,5.875008E-1,1.4642378E0,-6.4859366E-1,2.9961944E-1,3.709489E-1,-2.0155393E-1,-1.1676356E0,-2.6080608E-1,2.2013304E0,8.427212E-1,1.2104981E0,-7.5371936E-2,4.55873E-1,-2.8462955E-1,2.886488E0,9.35825E-1,1.7579881E0,6.9073904E-1],"split_indices":[3,3,3,3,1,1,1,2,1,3,7,0,1,4,3,1,4,0,1,0,0,6,2,3,0,0,4,0,4,1,2,3,6,7,0,3,4,0,0,1,0,3,3,3,6,0,3,0,5,0,0,3,3,0,4,0,0,0,5,5,1,0,0,0,0,0,0,0,0,0,0,0,0,0,0,0,0,0,0,0,0,0,0,0,0,0,0,0,0,0,0,0,0,0,0,0,0,0,0,0,0,0,0,0,0,0,0,0,0,0,0],"split_type":[0,0,0,0,0,0,0,0,0,0,0,0,0,0,0,0,0,0,0,0,0,0,0,0,0,0,0,0,0,0,0,0,0,0,0,0,0,0,0,0,0,0,0,0,0,0,0,0,0,0,0,0,0,0,0,0,0,0,0,0,0,0,0,0,0,0,0,0,0,0,0,0,0,0,0,0,0,0,0,0,0,0,0,0,0,0,0,0,0,0,0,0,0,0,0,0,0,0,0,0,0,0,0,0,0,0,0,0,0,0,0],"sum_hessian":[9.49E2,6.99E2,2.5E2,2.98E2,4.01E2,1.36E2,1.14E2,6.4E1,2.34E2,1.89E2,2.12E2,2.5E1,1.11E2,1.8E1,9.6E1,2.6E1,3.8E1,7.3E1,1.61E2,9.1E1,9.8E1,1.85E2,2.7E1,2.1E1,4E0,7.8E1,3.3E1,8E0,1E1,5.7E1,3.9E1,1.6E1,1E1,1E1,2.8E1,1.5E1,5.8E1,1.21E2,4E1,5E1,4.1E1,6.8E1,3E1,1.31E2,5.4E1,1.8E1,9E0,1.3E1,8E0,1E0,3E0,5.8E1,2E1,6E0,2.7E1,2E0,8E0,4.5E1,1.2E1,1.8E1,2.1E1,6E0,1E1,2E0,8E0,1E0,9E0,7E0,8E0,4.7E1,1.1E1,1.5E1,1.06E2,5E0,3.5E1,1.9E1,3.1E1,2.5E1,1.6E1,3.4E1,3.4E1,1E1,2E1,5.2E1,7.9E1,3.3E1,2.1E1,1.3E1,5E0,1E0,8E0,7E0,1E0,4E1,1.8E1,1.2E1,8E0,5E0,1E0,5E0,2.2E1,6E0,2E0,3.9E1,6E0,4E0,8E0,1.4E1,4E0,1E1,1.1E1],"tree_param":{"num_deleted":"0","num_feature":"8","num_nodes":"111","size_leaf_vector":"1"}},{"base_weights":[6.445793E-2,-8.111328E-1,2.5060875E0,-1.8584534E0,-4.1163674E-1,2.338058E0,3.68922E0,-1.4313669E0,-2.331326E0,7.204293E-1,-8.028775E-1,5.4985104E0,1.8944433E0,-2.866523E0,-9.6498847E-1,-2.838569E0,-2.0025272E0,2.7109453E-1,3.5261924E0,-1.2745878E0,-6.12022E-2,4.322494E0,7.762271E0,9.21343E-1,3.332566E0,-1.0321839E0,-2.0719314E0,6.8085596E-2,-1.4358056E0,-1.3003694E-1,-2.9001832E0,-1.6051766E0,-2.6772346E0,1.0899078E0,-2.0579126E0,-2.0170899E-1,1.1438152E0,-5.7366043E-1,-2.1870658E0,5.4342276E-1,-1.825733E0,1.3432901E0,1.847402E0,2.7437105E0,5.840531E-1,1.8417373E0,-2.1382575E-1,4.1792574E0,7.58036E-1,-1.7426434E-1,-7.383476E-1,-1.4639837E-1,3.0198398E-1,-6.9312394E-1,-3.150202E-1,-2.0893994E-1,-8.846413E-1,-4.1965747E-1,-9.1822416E-1,-8.9505464E-1,-2.1187013E-1,6.840164E-1,1.2985992E-1,-8.608612E-1,-1.8040437E-1,-6.497764E-2,-6.51433E-1,-5.307922E-1,-1.052617E0,4.0132296E-1,-5.932027E-1,-8.8279194E-1,-1.6618517E-1,1.6829109E-1,6.630398E-1,8.0052596E-1,-9.9706106E-2,8.175872E-1,-1.5917067E-1,9.699757E-1,1.6804127E0,1.0783584E0,4.585077E-2],"categories":[],"categories_nodes":[],"categories_segments":[],"categories_sizes":[],"default_left":[0,0,0,0,0,0,0,0,0,0,0,0,0,0,0,0,0,0,0,0,0,0,0,0,0,0,0,0,0,0,0,0,0,0,0,0,0,0,0,0,0,0,0,0,0,0,0,0,0,0,0,0,0,0,0,0,0,0,0,0,0,0,0,0,0,0,0,0,0,0,0,0,0,0,0,0,0,0,0,0,0,0,0],"id":5,"left_children":[1,3,5,7,9,11,-1,13,15,17,19,21,23,25,27,29,31,33,35,37,39,41,43,45,47,-1,49,51,53,-1,55,57,59,61,63,-1,-1,65,67,69,71,-1,73,-1,-1,75,77,79,81,-1,-1,-1,-1,-1,-1,-1,-1,-1,-1,-1,-1,-1,-1,-1,-1,-1,-1,-1,-1,-1,-1,-1,-1,-1,-1,-1,-1,-1,-1,-1,-1,-1,-1],"loss_changes":[2.0330077E3,2.921153E2,3.8420056E2,3.564087E1,2.2557689E2,3.3728516E2,0E0,6.684375E1,9.325989E0,1.6419928E2,1.321675E2,4.6314148E1,3.0340643E2,4.2754364E0,3.9008865E1,3.6331177E0,1.1252106E1,2.1964343E2,2.4217346E1,1.4648856E2,1.5889029E2,1.756897E-1,5.460193E1,1.3830779E2,1.8865717E2,0E0,6.1150017E0,1.4060534E1,1.6129234E1,0E0,1.374939E0,7.4305725E0,9.966522E0,6.548097E1,3.373993E1,0E0,0E0,7.483801E1,4.900537E1,2.2489995E2,5.234749E1,0E0,1.6006565E-1,0E0,0E0,1.320885E2,5.7302643E1,7.068115E1,3.8933464E1,0E0,0E0,0E0,0E0,0E0,0E0,0E0,0E0,0E0,0E0,0E0,0E0,0E0,0E0,0E0,0E0,0E0,0E0,0E0,0E0,0E0,0E0,0E0,0E0,0E0,0E0,0E0,0E0,0E0,0E0,0E0,0E0,0E0,0E0],"parents":[2147483647,0,0,1,1,2,2,3,3,4,4,5,5,7,7,8,8,9,9,10,10,11,11,12,12,13,13,14,14,15,15,16,16,17,17,18,18,19,19,20,20,21,21,22,22,23,23,24,24,26,26,27,27,28,28,30,30,31,31,32,32,33,33,34,34,37,37,38,38,39,39,40,40,42,42,45,45,46,46,47,47,48,48],"right_children":[2,4,6,8,10,12,-1,14,16,18,20,22,24,26,28,30,32,34,36,38,40,42,44,46,48,-1,50,52,54,-1,56,58,60,62,64,-1,-1,66,68,70,72,-1,74,-1,-1,76,78,80,82,-1,-1,-1,-1,-1,-1,-1,-1,-1,-1,-1,-1,-1,-1,-1,-1,-1,-1,-1,-1,-1,-1,-1,-1,-1,-1,-1,-1,-1,-1,-1,-1,-1,-1],"split_conditions":[2.3333334E1,1.2E1,5.0666668E1,1E1,1.3E1,1.9E1,3.68922E0,7.3333335E0,9.666667E0,1.7666666E1,1.8333334E1,2.8666666E1,3.3333332E1,6.3333335E0,9E0,9.1641035E0,1.1E1,1.8E1,1.771884E1,1.5E1,2.4E1,3.3E1,2.2E1,3E1,4.4E1,-1.0321839E0,6E0,9.666667E0,9.333333E0,-1.3003694E-1,-1.1346333E1,1.8E1,1.5314083E1,1.3E1,1.5333333E1,-2.0170899E-1,1.1438152E0,2.3E1,2E1,2.7E1,2.1666666E1,1.3432901E0,3.4E1,2.7437105E0,5.840531E-1,3.3E1,1.6E1,3.8666668E1,3.1E1,-1.7426434E-1,-7.383476E-1,-1.4639837E-1,3.0198398E-1,-6.9312394E-1,-3.150202E-1,-2.0893994E-1,-8.846413E-1,-4.1965747E-1,-9.1822416E-1,-8.9505464E-1,-2.1187013E-1,6.840164E-1,1.2985992E-1,-8.608612E-1,-1.8040437E-1,-6.497764E-2,-6.51433E-1,-5.307922E-1,-1.052617E0,4.0132296E-1,-5.932027E-1,-8.8279194E-1,-1.6618517E-1,1.6829109E-1,6.630398E-1,8.0052596E-1,-9.9706106E-2,8.175872E-1,-1.5917067E-1,9.699757E-1,1.6804127E0,1.0783584E0,4.585077E-2],"split_indices":[3,3,3,1,1,1,0,3,3,3,3,3,3,3,0,6,0,0,7,0,0,0,2,1,1,0,0,3,3,0,4,1,4,0,3,0,0,1,0,1,3,0,0,0,0,0,0,3,0,0,0,0,0,0,0,0,0,0,0,0,0,0,0,0,0,0,0,0,0,0,0,0,0,0,0,0,0,0,0,0,0,0,0],"split_type":[0,0,0,0,0,0,0,0,0,0,0,0,0,0,0,0,0,0,0,0,0,0,0,0,0,0,0,0,0,0,0,0,0,0,0,0,0,0,0,0,0,0,0,0,0,0,0,0,0,0,0,0,0,0,0,0,0,0,0,0,0,0,0,0,0,0,0,0,0,0,0,0,0,0,0,0,0,0,0,0,0,0,0],"sum_hessian":[9.49E2,6.99E2,2.5E2,1.92E2,5.07E2,2.47E2,3E0,1.03E2,8.9E1,1.3E2,3.77E2,2.9E1,2.18E2,2.4E1,7.9E1,3.2E1,5.7E1,1.13E2,1.7E1,2.3E2,1.47E2,2.1E1,8E0,1.31E2,8.7E1,1.2E1,1.2E1,2.5E1,5.4E1,1E0,3.1E1,3.8E1,1.9E1,8.4E1,2.9E1,1E0,1.6E1,1.31E2,9.9E1,1.1E2,3.7E1,1.9E1,2E0,6E0,2E0,7.2E1,5.9E1,6.5E1,2.2E1,3E0,9E0,1.6E1,9E0,1.5E1,3.9E1,1E0,3E1,3.5E1,3E0,1.6E1,3E0,2.9E1,5.5E1,1.8E1,1.1E1,1.08E2,2.3E1,7.7E1,2.2E1,8.4E1,2.6E1,1.9E1,1.8E1,1E0,1E0,5.2E1,2E1,5E0,5.4E1,4.1E1,2.4E1,3E0,1.9E1],"tree_param":{"num_deleted":"0","num_feature":"8","num_nodes":"83","size_leaf_vector":"1"}},{"base_weights":[5.0419204E-2,-4.9836192E-1,2.277385E0,-1.1518862E0,1.8584386E-2,2.108251E0,2.8591454E0,-1.0032648E0,-1.9849082E0,5.397257E-1,-1.0650734E0,2.9423127E0,9.0018654E-1,-1.6202189E0,-6.9118786E-1,-1.1217101E0,-2.3228014E0,1.7079842E0,1.7944954E-1,1.6205415E0,-1.2414509E0,5.953925E0,2.5083613E0,9.065274E-2,2.2369785E0,-1.0010037E0,-1.9286807E0,-2.637497E-1,-1.6815397E0,-6.368852E-2,-1.3609698E0,-1.5767564E0,-2.745081E0,1.2190137E0,3.5069413E0,-6.135378E-1,1.1355387E0,7.2643375E-1,8.1651497E-1,-2.4716969E0,-7.121924E-1,3.57815E-1,6.2512994E0,1.4131613E0,3.6434007E0,2.046978E0,-2.2992702E-1,3.4432223E0,4.875076E-1,-9.088832E-1,-1.640324E-1,-4.6972734E-1,-7.7399E-1,-1.6256362E-1,2.2111063E-1,-6.6887486E-1,-2.4367376E-1,1.3065791E-1,-1.1258069E-1,-4.466925E-1,2.6263619E-2,-8.780737E-2,-5.620145E-1,-9.953758E-1,-5.3495014E-1,7.575526E-1,1.7046785E-1,2.3346005E-1,1.0970949E0,-3.7858054E-2,-7.224328E-1,8.455545E-1,1.8935533E-1,2.8013054E-1,3.4537125E-2,-4.795726E-1,-1.0204587E0,2.9920277E-1,-4.5072266E-1,1.9477725E0,5.3959066E-1,7.0794314E-1,1.2364794E-1,1.4970274E0,8.1418186E-1,9.1920924E-1,1.5545426E-1,9.167905E-2,-2.583178E-1,1.2427651E0,-3.603474E-1,2.799525E-1,-2.2456127E-1],"categories":[],"categories_nodes":[],"categories_segments":[],"categories_sizes":[],"default_left":[0,0,0,0,0,0,0,0,0,0,0,0,0,0,0,0,0,0,0,0,0,0,0,0,0,0,0,0,0,0,0,0,0,0,0,0,0,0,0,0,0,0,0,0,0,0,0,0,0,0,0,0,0,0,0,0,0,0,0,0,0,0,0,0,0,0,0,0,0,0,0,0,0,0,0,0,0,0,0,0,0,0,0,0,0,0,0,0,0,0,0,0,0],"id":6,"left_children":[1,3,5,7,9,11,-1,13,15,17,19,21,23,25,27,29,31,33,35,37,39,41,43,45,47,49,51,53,55,57,59,61,63,65,67,69,71,-1,73,75,77,-1,79,81,83,85,87,89,91,-1,-1,-1,-1,-1,-1,-1,-1,-1,-1,-1,-1,-1,-1,-1,-1,-1,-1,-1,-1,-1,-1,-1,-1,-1,-1,-1,-1,-1,-1,-1,-1,-1,-1,-1,-1,-1,-1,-1,-1,-1,-1,-1,-1],"loss_changes":[1.1621458E3,2.5779102E2,2.1053546E2,3.9730927E1,2.417183E2,1.837575E2,0E0,5.433081E1,1.1977921E1,1.2133236E2,6.785365E1,1.2751672E2,8.312494E1,1.6405777E1,8.125613E1,3.9635944E0,6.698059E0,5.554033E1,1.6900969E2,3.81839E0,8.353613E1,1.0950195E1,1.1543152E2,3.120141E1,5.951976E1,2.9672867E1,1.0851517E1,3.8254627E1,2.5820847E1,7.856218E-1,2.5407772E0,5.164974E0,5.6550293E0,4.531697E1,2.886078E0,1.0639416E2,8.395145E1,0E0,3.8594437E-1,2.6224792E1,1.27132355E2,0E0,1.2140198E0,4.7354843E1,4.5286926E1,9.2963505E0,1.4796553E1,6.0190918E1,7.8597603E0,0E0,0E0,0E0,0E0,0E0,0E0,0E0,0E0,0E0,0E0,0E0,0E0,0E0,0E0,0E0,0E0,0E0,0E0,0E0,0E0,0E0,0E0,0E0,0E0,0E0,0E0,0E0,0E0,0E0,0E0,0E0,0E0,0E0,0E0,0E0,0E0,0E0,0E0,0E0,0E0,0E0,0E0,0E0,0E0],"parents":[2147483647,0,0,1,1,2,2,3,3,4,4,5,5,7,7,8,8,9,9,10,10,11,11,12,12,13,13,14,14,15,15,16,16,17,17,18,18,19,19,20,20,21,21,22,22,23,23,24,24,25,25,26,26,27,27,28,28,29,29,30,30,31,31,32,32,33,33,34,34,35,35,36,36,38,38,39,39,40,40,42,42,43,43,44,44,45,45,46,46,47,47,48,48],"right_children":[2,4,6,8,10,12,-1,14,16,18,20,22,24,26,28,30,32,34,36,38,40,42,44,46,48,50,52,54,56,58,60,62,64,66,68,70,72,-1,74,76,78,-1,80,82,84,86,88,90,92,-1,-1,-1,-1,-1,-1,-1,-1,-1,-1,-1,-1,-1,-1,-1,-1,-1,-1,-1,-1,-1,-1,-1,-1,-1,-1,-1,-1,-1,-1,-1,-1,-1,-1,-1,-1,-1,-1,-1,-1,-1,-1,-1,-1],"split_conditions":[2.6333334E1,1.4666667E1,5.0666668E1,1.6E1,2.2E1,3.6E1,2.8591454E0,9.666667E0,1.5111424E1,1.5E1,9E0,2.5E1,3.8666668E1,7E0,1.4E1,2.1645389E2,1.1E1,1.7333334E1,1.9E1,-2.265083E0,1.9333334E1,9.412964E1,3.2333332E1,2.2E1,1.671712E2,5.6666665E0,2.026899E1,1.3E1,1.3666667E1,6E0,6E-1,1.7114204E1,2.5211331E2,1.4E1,-4.354667E0,2.2E1,2.1E1,7.2643375E-1,2.6E1,1.5E1,1.9E1,3.57815E-1,3.2E1,3.2E1,3.7E1,3.9E1,3.5E1,5.2E1,2.0833395E1,-9.088832E-1,-1.640324E-1,-4.6972734E-1,-7.7399E-1,-1.6256362E-1,2.2111063E-1,-6.6887486E-1,-2.4367376E-1,1.3065791E-1,-1.1258069E-1,-4.466925E-1,2.6263619E-2,-8.780737E-2,-5.620145E-1,-9.953758E-1,-5.3495014E-1,7.575526E-1,1.7046785E-1,2.3346005E-1,1.0970949E0,-3.7858054E-2,-7.224328E-1,8.455545E-1,1.8935533E-1,2.8013054E-1,3.4537125E-2,-4.795726E-1,-1.0204587E0,2.9920277E-1,-4.5072266E-1,1.9477725E0,5.3959066E-1,7.0794314E-1,1.2364794E-1,1.4970274E0,8.1418186E-1,9.1920924E-1,1.5545426E-1,9.167905E-2,-2.583178E-1,1.2427651E0,-3.603474E-1,2.799525E-1,-2.2456127E-1],"split_indices":[3,3,3,1,1,1,0,3,6,0,0,0,3,1,0,7,0,3,3,4,3,7,3,0,7,3,6,3,3,0,5,6,7,1,4,0,0,0,2,0,0,0,1,0,0,1,0,1,6,0,0,0,0,0,0,0,0,0,0,0,0,0,0,0,0,0,0,0,0,0,0,0,0,0,0,0,0,0,0,0,0,0,0,0,0,0,0,0,0,0,0,0,0],"split_type":[0,0,0,0,0,0,0,0,0,0,0,0,0,0,0,0,0,0,0,0,0,0,0,0,0,0,0,0,0,0,0,0,0,0,0,0,0,0,0,0,0,0,0,0,0,0,0,0,0,0,0,0,0,0,0,0,0,0,0,0,0,0,0,0,0,0,0,0,0,0,0,0,0,0,0,0,0,0,0,0,0,0,0,0,0,0,0,0,0,0,0,0,0],"sum_hessian":[9.49E2,7.62E2,1.87E2,3.36E2,4.26E2,1.84E2,3E0,2.87E2,4.9E1,2.88E2,1.38E2,1.08E2,7.6E1,9.5E1,1.92E2,1.5E1,3.4E1,6.7E1,2.21E2,8E0,1.3E2,1.2E1,9.6E1,4.8E1,2.8E1,3.3E1,6.2E1,1.35E2,5.7E1,3E0,1.2E1,1.4E1,2E1,5.4E1,1.3E1,1.21E2,1E2,3E0,5E0,3.8E1,9.2E1,1E0,1.1E1,5E1,4.6E1,6E0,4.2E1,1.6E1,1.2E1,5E0,2.8E1,4.2E1,2E1,1.06E2,2.9E1,3.4E1,2.3E1,1E0,2E0,1.1E1,1E0,3E0,1.1E1,1.1E1,9E0,1.7E1,3.7E1,1E0,1.2E1,9.6E1,2.5E1,2.2E1,7.8E1,4E0,1E0,2.1E1,1.7E1,2.9E1,6.3E1,1E1,1E0,2.5E1,2.5E1,1.7E1,2.9E1,3E0,3E0,2.3E1,1.9E1,1.4E1,2E0,9E0,3E0],"tree_param":{"num_deleted":"0","num_feature":"8","num_nodes":"93","size_leaf_vector":"1"}},{"base_weights":[4.251712E-2,-3.3764794E-1,1.7280347E0,-7.4985427E-1,1.6359858E-1,3.4435942E0,1.2270503E0,-5.4669815E-1,-1.3077406E0,1.726013E0,-1.5800573E-1,2.4904752E0,5.380573E0,8.191353E-1,3.2132754E0,-1.0322738E0,-9.6279755E-2,-5.911054E-1,-1.6923201E0,8.873308E-1,2.4819632E0,1.441676E-1,-1.3046649E0,3.5325367E0,1.6084036E0,2.181444E0,3.5261846E0,1.4706075E0,-1.5470974E-1,4.23764E0,1.4578377E0,-5.280121E-1,-1.2154257E0,2.3838346E-1,-1.1060836E0,-9.628864E-1,5.1037794E-1,-1.4751083E0,-2.502348E0,3.0763328E0,3.2647708E-1,-1.9985591E-1,2.6091075E0,2.6660576E-1,-2.919201E0,3.9315936E-1,-1.4625291E0,3.8766644E0,3.6237985E-1,2.7545555E0,7.328157E-1,1.1226397E0,3.0218297E-1,1.0400923E0,3.0876248E0,-1.4724988E0,2.4124674E-1,-4.056287E-1,4.7716265E0,1.7803855E0,-2.1676399E-1,-5.6904554E-1,-2.9166589E-2,-3.0431527E-1,-5.7953507E-1,4.3377152E-1,-1.5273769E-2,4.5236284E-1,-3.8363892E-1,-1.5812713E-1,-4.015506E-1,4.7912064E-1,7.26006E-2,-2.8845018E-1,-5.6834054E-1,-9.050709E-1,-3.9403716E-1,1.036802E0,1.766945E-1,1.8466201E-1,-2.0744368E-1,8.011369E-1,1.2450028E-1,-1.32706575E-2,4.4111642E-1,-9.9694693E-1,4.6866134E-2,-7.877098E-1,-2.7485928E-1,1.2290571E0,2.8424037E-1,3.3963835E-1,9.5313036E-1,-1.4594097E-1,3.1734607E-1,4.6263987E-1,-1.7285456E-1,2.1947609E-1,1.0991019E0,-1.3228023E-1,-9.502511E-1,2.0590422E-1,-3.0874795E-1,1.6353147E0,2.0696107E-1,6.130065E-1,1.719986E-1],"categories":[],"categories_nodes":[],"categories_segments":[],"categories_sizes":[],"default_left":[0,0,0,0,0,0,0,0,0,0,0,0,0,0,0,0,0,0,0,0,0,0,0,0,0,0,0,0,0,0,0,0,0,0,0,0,0,0,0,0,0,0,0,0,0,0,0,0,0,0,0,0,0,0,0,0,0,0,0,0,0,0,0,0,0,0,0,0,0,0,0,0,0,0,0,0,0,0,0,0,0,0,0,0,0,0,0,0,0,0,0,0,0,0,0,0,0,0,0,0,0,0,0,0,0,0,0],"id":7,"left_children":[1,3,5,7,9,11,13,15,17,19,21,23,25,27,29,31,33,35,37,39,41,43,45,47,49,-1,51,53,55,57,59,61,63,65,67,69,71,73,75,77,79,-1,81,83,85,-1,87,89,-1,91,93,-1,-1,95,97,99,101,-1,103,105,-1,-1,-1,-1,-1,-1,-1,-1,-1,-1,-1,-1,-1,-1,-1,-1,-1,-1,-1,-1,-1,-1,-1,-1,-1,-1,-1,-1,-1,-1,-1,-1,-1,-1,-1,-1,-1,-1,-1,-1,-1,-1,-1,-1,-1,-1,-1],"loss_changes":[6.093196E2,1.6045746E2,1.4618152E2,4.7567062E1,1.7664294E2,5.8600494E1,1.0836679E2,6.857624E1,3.0142822E1,3.5837784E1,1.0136313E2,2.0055115E1,1.6437164E1,7.318731E1,3.5181E1,1.3304077E1,5.5686527E1,1.7281372E1,9.152939E0,3.5826946E1,1.414653E1,8.7795265E1,2.7100258E1,4.9167633E0,1.5041882E1,0E0,5.822525E-1,4.4822983E1,2.487923E1,4.8239517E1,8.319195E0,2.4581657E1,1.388237E1,4.339068E1,2.0438286E1,4.3689346E0,2.8215644E0,1.1101654E1,4.6019287E0,3.6307678E0,7.781967E0,0E0,2.9299011E0,8.388254E1,1.1700142E1,0E0,3.445198E1,2.568222E0,0E0,1.2019615E0,4.873605E0,0E0,0E0,4.6328926E1,1.6320374E1,1.7836918E1,2.1628334E1,0E0,3.2291534E1,1.685257E0,0E0,0E0,0E0,0E0,0E0,0E0,0E0,0E0,0E0,0E0,0E0,0E0,0E0,0E0,0E0,0E0,0E0,0E0,0E0,0E0,0E0,0E0,0E0,0E0,0E0,0E0,0E0,0E0,0E0,0E0,0E0,0E0,0E0,0E0,0E0,0E0,0E0,0E0,0E0,0E0,0E0,0E0,0E0,0E0,0E0,0E0,0E0],"parents":[2147483647,0,0,1,1,2,2,3,3,4,4,5,5,6,6,7,7,8,8,9,9,10,10,11,11,12,12,13,13,14,14,15,15,16,16,17,17,18,18,19,19,20,20,21,21,22,22,23,23,24,24,26,26,27,27,28,28,29,29,30,30,31,31,32,32,33,33,34,34,35,35,36,36,37,37,38,38,39,39,40,40,42,42,43,43,44,44,46,46,47,47,49,49,50,50,53,53,54,54,55,55,56,56,58,58,59,59],"right_children":[2,4,6,8,10,12,14,16,18,20,22,24,26,28,30,32,34,36,38,40,42,44,46,48,50,-1,52,54,56,58,60,62,64,66,68,70,72,74,76,78,80,-1,82,84,86,-1,88,90,-1,92,94,-1,-1,96,98,100,102,-1,104,106,-1,-1,-1,-1,-1,-1,-1,-1,-1,-1,-1,-1,-1,-1,-1,-1,-1,-1,-1,-1,-1,-1,-1,-1,-1,-1,-1,-1,-1,-1,-1,-1,-1,-1,-1,-1,-1,-1,-1,-1,-1,-1,-1,-1,-1,-1,-1],"split_conditions":[2.7333334E1,1.6E1,2.6E1,1.5E1,1.4E1,1.624394E1,4.0333332E1,1.1333333E1,1.1E1,1.7666666E1,2.8E1,1.9E1,1.858451E1,3.7E1,3.5E1,7E0,1.7E1,1.4E1,2.1E1,1.3E1,1.771884E1,3.3E1,-4.888E0,2E-1,1.2680398E2,2.181444E0,1.7E1,3.5666668E1,3.2666668E1,2.1389902E1,5.4E1,6.6666665E0,1.1E1,9E0,7E0,2.6943274E2,1.6E1,1.8079027E1,1.5666667E1,1.4E1,2.2849301E2,-1.9985591E-1,3.3E1,2.2666666E1,2.5E1,3.9315936E-1,2.1E1,1.3397612E1,3.6237985E-1,3.370988E1,-3.396333E0,1.1226397E0,3.0218297E-1,4.1E1,2.4533331E-1,3.7E1,4.4E1,-4.056287E-1,2.1724544E2,5.2E1,-2.1676399E-1,-5.6904554E-1,-2.9166589E-2,-3.0431527E-1,-5.7953507E-1,4.3377152E-1,-1.5273769E-2,4.5236284E-1,-3.8363892E-1,-1.5812713E-1,-4.015506E-1,4.7912064E-1,7.26006E-2,-2.8845018E-1,-5.6834054E-1,-9.050709E-1,-3.9403716E-1,1.036802E0,1.766945E-1,1.8466201E-1,-2.0744368E-1,8.011369E-1,1.2450028E-1,-1.32706575E-2,4.4111642E-1,-9.9694693E-1,4.6866134E-2,-7.877098E-1,-2.7485928E-1,1.2290571E0,2.8424037E-1,3.3963835E-1,9.5313036E-1,-1.4594097E-1,3.1734607E-1,4.6263987E-1,-1.7285456E-1,2.1947609E-1,1.0991019E0,-1.3228023E-1,-9.502511E-1,2.0590422E-1,-3.0874795E-1,1.6353147E0,2.0696107E-1,6.130065E-1,1.719986E-1],"split_indices":[3,3,1,1,1,6,3,3,0,3,1,1,6,0,2,1,0,3,1,0,7,0,4,5,7,0,2,3,3,7,0,3,0,1,1,7,1,6,3,2,7,0,0,3,2,0,3,6,0,7,4,0,0,1,4,1,0,0,7,0,0,0,0,0,0,0,0,0,0,0,0,0,0,0,0,0,0,0,0,0,0,0,0,0,0,0,0,0,0,0,0,0,0,0,0,0,0,0,0,0,0,0,0,0,0,0,0],"split_type":[0,0,0,0,0,0,0,0,0,0,0,0,0,0,0,0,0,0,0,0,0,0,0,0,0,0,0,0,0,0,0,0,0,0,0,0,0,0,0,0,0,0,0,0,0,0,0,0,0,0,0,0,0,0,0,0,0,0,0,0,0,0,0,0,0,0,0,0,0,0,0,0,0,0,0,0,0,0,0,0,0,0,0,0,0,0,0,0,0,0,0,0,0,0,0,0,0,0,0,0,0,0,0,0,0,0,0],"sum_hessian":[9.49E2,7.75E2,1.74E2,4.25E2,3.5E2,3.8E1,1.36E2,3.13E2,1.12E2,5.9E1,2.91E2,2.7E1,1.1E1,1.14E2,2.2E1,1.5E2,1.63E2,4E1,7.2E1,2.9E1,3E1,2.31E2,6E1,1.1E1,1.6E1,4E0,7E0,6.8E1,4.6E1,1.3E1,9E0,4.1E1,1.09E2,1.23E2,4E1,3E1,1E1,5.9E1,1.3E1,5E0,2.4E1,1E0,2.9E1,2.23E2,8E0,3E0,5.7E1,9E0,2E0,6E0,1E1,6E0,1E0,5.5E1,1.3E1,1E1,3.6E1,1E0,1.2E1,8E0,1E0,9E0,3.2E1,8.7E1,2.2E1,2.3E1,1E2,2E0,3.8E1,1.5E1,1.5E1,1E0,9E0,2.8E1,3.1E1,8E0,5E0,4E0,1E0,1.9E1,5E0,2.8E1,1E0,1.78E2,4.5E1,7E0,1E0,1.7E1,4E1,8E0,1E0,2E0,4E0,2E0,8E0,4.2E1,1.3E1,3E0,1E1,7E0,3E0,2.7E1,9E0,1E1,2E0,6E0,2E0],"tree_param":{"num_deleted":"0","num_feature":"8","num_nodes":"107","size_leaf_vector":"1"}},{"base_weights":[3.7067544E-2,-2.3948978E-1,1.2631899E0,-5.919547E-1,7.173717E-2,1.1392064E0,6.2786837E0,-4.6909848E-1,-1.1714885E0,9.4975466E-1,-2.3451562E-1,3.206929E0,9.065751E-1,5.8050674E-1,2.124469E0,-7.0525515E-1,-7.346069E-2,7.584871E-1,-1.3151901E0,6.6618925E-1,1.8075471E0,4.9170592E-1,-5.285759E-1,4.041709E0,1.0028807E0,1.3362666E0,2.1494407E-2,-5.170668E-1,-1.1911155E0,8.61069E-1,-4.4865605E-1,-2.834686E-1,4.2616698E-1,-7.5930923E-1,-1.5807878E0,1.3462267E0,1.0472024E-1,3.1785023E0,1.2373354E0,9.2949206E-1,-3.171473E-1,-1.4617149E0,-1.6725482E-1,7.115109E-1,1.5949293E0,-7.6546674E-3,3.6409894E-1,1.0577679E0,2.715686E0,-8.675815E-1,5.5967695E-1,-2.3069231E-1,2.3109252E-2,-4.5990992E-1,-2.5298762E-1,4.6749178E-1,1.4705105E-1,2.1162137E-2,-2.2486474E-1,-2.7502936E-1,4.172001E-2,-3.6063236E-1,-6.319606E-1,5.789644E-1,2.8490064E-1,1.3463853E-1,-1.9088624E-1,2.0889074E-1,1.0428456E0,9.683603E-2,5.460407E-1,8.673668E-2,6.395216E-1,-4.2957413E-1,1.5628543E-1,-2.8565884E-1,-7.613712E-1,9.427434E-2,-2.660686E-1,5.064977E-1,1.2948921E-1,4.8757744E-1,1.3331784E0,-8.3877206E-2,-6.578885E-1,2.8825885E-1,-2.4424107E-1],"categories":[],"categories_nodes":[],"categories_segments":[],"categories_sizes":[],"default_left":[0,0,0,0,0,0,0,0,0,0,0,0,0,0,0,0,0,0,0,0,0,0,0,0,0,0,0,0,0,0,0,0,0,0,0,0,0,0,0,0,0,0,0,0,0,0,0,0,0,0,0,0,0,0,0,0,0,0,0,0,0,0,0,0,0,0,0,0,0,0,0,0,0,0,0,0,0,0,0,0,0,0,0,0,0,0,0],"id":8,"left_children":[1,3,5,7,9,11,13,15,17,19,21,23,25,-1,-1,27,29,31,33,35,37,39,41,43,45,47,49,51,53,55,57,-1,-1,59,61,63,65,67,69,71,73,75,77,-1,-1,-1,-1,79,81,83,85,-1,-1,-1,-1,-1,-1,-1,-1,-1,-1,-1,-1,-1,-1,-1,-1,-1,-1,-1,-1,-1,-1,-1,-1,-1,-1,-1,-1,-1,-1,-1,-1,-1,-1,-1,-1],"loss_changes":[3.22441E2,8.516702E1,1.0166901E2,2.5367027E1,1.1127649E2,7.982764E1,2.4676514E-1,2.8164803E1,1.8470001E1,2.482254E1,6.582064E1,2.7224884E1,5.9299896E1,0E0,0E0,1.6665009E1,4.0358284E1,6.981064E0,7.510483E0,3.1168255E1,1.6392227E1,3.1810104E1,7.359416E1,1.2936508E1,1.331574E0,3.746495E1,2.536679E1,2.0711998E1,4.891403E0,7.770109E0,1.2863127E1,0E0,0E0,3.0980253E0,5.232231E0,6.7310104E0,1.201382E1,2.75132E0,1.0072468E1,4.4036846E1,3.0643057E1,3.1032059E1,5.5373604E1,0E0,0E0,0E0,0E0,3.440985E1,2.481437E1,1.4973094E1,1.8970379E1,0E0,0E0,0E0,0E0,0E0,0E0,0E0,0E0,0E0,0E0,0E0,0E0,0E0,0E0,0E0,0E0,0E0,0E0,0E0,0E0,0E0,0E0,0E0,0E0,0E0,0E0,0E0,0E0,0E0,0E0,0E0,0E0,0E0,0E0,0E0,0E0],"parents":[2147483647,0,0,1,1,2,2,3,3,4,4,5,5,6,6,7,7,8,8,9,9,10,10,11,11,12,12,15,15,16,16,17,17,18,18,19,19,20,20,21,21,22,22,23,23,24,24,25,25,26,26,27,27,28,28,29,29,30,30,33,33,34,34,35,35,36,36,37,37,38,38,39,39,40,40,41,41,42,42,47,47,48,48,49,49,50,50],"right_children":[2,4,6,8,10,12,14,16,18,20,22,24,26,-1,-1,28,30,32,34,36,38,40,42,44,46,48,50,52,54,56,58,-1,-1,60,62,64,66,68,70,72,74,76,78,-1,-1,-1,-1,80,82,84,86,-1,-1,-1,-1,-1,-1,-1,-1,-1,-1,-1,-1,-1,-1,-1,-1,-1,-1,-1,-1,-1,-1,-1,-1,-1,-1,-1,-1,-1,-1,-1,-1,-1,-1,-1,-1],"split_conditions":[2.7333334E1,1.5E1,5.0666668E1,1.5E1,1.5E1,2.4E1,5.1E1,1.2E1,7E0,1.9333334E1,1.6E1,3.9E1,3.8E1,5.8050674E-1,2.124469E0,1.2E1,1.2E1,1.0333333E1,1.5547875E1,1.7E1,2.1E1,2.6E1,1.9333334E1,2.9E1,1.8E1,3.8666668E1,3.5E1,1E1,1E-1,1.1E1,1.1E1,-2.834686E-1,4.2616698E-1,3.1893176E2,2.662938E2,1.4E1,2.2E1,9E0,1.5537646E2,1.7333334E1,1.8333334E1,2.1E1,2.4E1,7.115109E-1,1.5949293E0,-7.6546674E-3,3.6409894E-1,2.8E1,1.0000001E0,3.5E1,5.2E1,-2.3069231E-1,2.3109252E-2,-4.5990992E-1,-2.5298762E-1,4.6749178E-1,1.4705105E-1,2.1162137E-2,-2.2486474E-1,-2.7502936E-1,4.172001E-2,-3.6063236E-1,-6.319606E-1,5.789644E-1,2.8490064E-1,1.3463853E-1,-1.9088624E-1,2.0889074E-1,1.0428456E0,9.683603E-2,5.460407E-1,8.673668E-2,6.395216E-1,-4.2957413E-1,1.5628543E-1,-2.8565884E-1,-7.613712E-1,9.427434E-2,-2.660686E-1,5.064977E-1,1.2948921E-1,4.8757744E-1,1.3331784E0,-8.3877206E-2,-6.578885E-1,2.8825885E-1,-2.4424107E-1],"split_indices":[3,3,3,0,1,0,0,3,1,3,0,1,1,0,0,1,1,3,6,0,0,1,3,3,0,3,3,3,5,0,0,0,0,7,7,0,0,2,7,3,3,1,1,0,0,0,0,1,5,0,1,0,0,0,0,0,0,0,0,0,0,0,0,0,0,0,0,0,0,0,0,0,0,0,0,0,0,0,0,0,0,0,0,0,0,0,0],"split_type":[0,0,0,0,0,0,0,0,0,0,0,0,0,0,0,0,0,0,0,0,0,0,0,0,0,0,0,0,0,0,0,0,0,0,0,0,0,0,0,0,0,0,0,0,0,0,0,0,0,0,0,0,0,0,0,0,0,0,0,0,0,0,0,0,0,0,0,0,0,0,0,0,0,0,0,0,0,0,0,0,0,0,0,0,0,0,0],"sum_hessian":[9.49E2,7.75E2,1.74E2,3.63E2,4.12E2,1.71E2,3E0,3.01E2,6.2E1,1.06E2,3.06E2,1.6E1,1.55E2,1E0,2E0,1.88E2,1.13E2,4E0,5.8E1,8.1E1,2.5E1,8.8E1,2.18E2,1.1E1,5E0,1.04E2,5.1E1,1.37E2,5.1E1,3.2E1,8.1E1,1E0,3E0,2E1,3.8E1,3.6E1,4.5E1,6E0,1.9E1,5.7E1,3.1E1,6E1,1.58E2,6E0,5E0,1E0,4E0,8.8E1,1.6E1,1.9E1,3.2E1,9.6E1,4.1E1,2.4E1,2.7E1,1E1,2.2E1,3E1,5.1E1,1.7E1,3E0,2.4E1,1.4E1,1.3E1,2.3E1,3.1E1,1.4E1,1E0,5E0,8E0,1.1E1,3.8E1,1.9E1,1.3E1,1.8E1,4.2E1,1.8E1,9.5E1,6.3E1,4.3E1,4.5E1,1.1E1,5E0,1.4E1,5E0,2.5E1,7E0],"tree_param":{"num_deleted":"0","num_feature":"8","num_nodes":"87","size_leaf_vector":"1"}},{"base_weights":[3.381089E-2,-2.4406995E-1,7.418661E-1,-1.4916693E-1,-1.1440837E0,6.4346606E-1,3.8594348E0,-4.6385235E-1,1.7423302E-1,-6.223762E-1,-1.9539207E0,1.8193762E0,4.5932367E-1,1.36541E0,-1.4761305E-1,-2.273337E-1,-7.5618744E-1,4.78832E-1,-4.771488E-1,-1.9093721E0,-2.007407E-1,-2.2102287E0,-4.866434E-1,3.648552E0,1.4656583E0,6.7286116E-1,-3.5101107E-1,-9.272304E-1,-3.296116E-2,-9.682576E-1,-2.7148306E-1,1.4193077E-1,9.227133E-1,1.4226093E0,-6.8524355E-1,-6.2880087E-1,-2.3683598E0,-4.8945197E-1,7.2657466E-1,-6.762665E-1,-2.5313807E0,-3.451681E-2,-1.6523288E-1,1.2258554E0,2.8470325E-1,1.0917557E0,9.5748025E-1,-6.647126E-1,8.164407E-1,-7.9428184E-1,7.8223807E-1,-2.182871E-1,-5.6115884E-1,5.615558E-1,-4.471022E-2,-2.5772387E-1,-6.7477494E-1,-2.1122836E-2,-3.9727274E-1,7.1382487E-1,7.187467E-3,4.5314392E-1,1.7171569E-1,4.8306277E-1,1.3444196E-1,-1.5420666E-1,-8.904407E-1,-2.3025686E-1,-3.1895258E-2,-7.7130306E-1,-1.728686E-1,-2.4262942E-1,8.705492E-2,-2.1075268E-1,3.0932638E-1,-3.5424253E-1,1.6109277E-2,-7.8921866E-1,-1.4127131E-1,4.974383E-1,1.796226E-1,1.3848725E-1,-3.0584887E-1,2.824859E-1,-2.1010917E-1,-4.2480966E-1,-5.8852356E-2,5.288615E-1,1.2470086E-2],"categories":[],"categories_nodes":[],"categories_segments":[],"categories_sizes":[],"default_left":[0,0,0,0,0,0,0,0,0,0,0,0,0,0,0,0,0,0,0,0,0,0,0,0,0,0,0,0,0,0,0,0,0,0,0,0,0,0,0,0,0,0,0,0,0,0,0,0,0,0,0,0,0,0,0,0,0,0,0,0,0,0,0,0,0,0,0,0,0,0,0,0,0,0,0,0,0,0,0,0,0,0,0,0,0,0,0,0,0],"id":9,"left_children":[1,3,5,7,9,11,13,15,17,19,21,23,25,-1,-1,27,29,31,33,35,37,39,41,43,45,47,49,51,53,55,57,59,61,63,65,67,69,71,73,75,77,-1,-1,-1,-1,79,-1,81,83,85,87,-1,-1,-1,-1,-1,-1,-1,-1,-1,-1,-1,-1,-1,-1,-1,-1,-1,-1,-1,-1,-1,-1,-1,-1,-1,-1,-1,-1,-1,-1,-1,-1,-1,-1,-1,-1,-1,-1],"loss_changes":[1.870983E2,5.8167126E1,7.973067E1,6.3075974E1,2.62463E1,5.5679924E1,2.6326874E1,2.153891E1,6.0942005E1,2.186508E1,8.326271E0,1.7297897E1,3.9515545E1,0E0,0E0,2.3776562E1,1.4127914E1,3.1123764E1,3.9717148E1,4.3884354E0,8.922868E0,8.633453E0,5.5784702E-2,2.0292053E0,1.652092E1,3.511138E1,2.4733456E1,5.7939377E0,3.0790386E1,1.1633774E1,9.220775E0,3.1618416E1,1.7667404E1,1.1065044E0,3.3262627E1,2.0831847E-1,1.0607414E0,6.4583745E0,4.2057467E0,1.9048939E0,2.2411575E0,0E0,0E0,0E0,0E0,6.546398E0,0E0,7.6635294E0,3.1608597E1,1.273778E1,1.0095303E1,0E0,0E0,0E0,0E0,0E0,0E0,0E0,0E0,0E0,0E0,0E0,0E0,0E0,0E0,0E0,0E0,0E0,0E0,0E0,0E0,0E0,0E0,0E0,0E0,0E0,0E0,0E0,0E0,0E0,0E0,0E0,0E0,0E0,0E0,0E0,0E0,0E0,0E0],"parents":[2147483647,0,0,1,1,2,2,3,3,4,4,5,5,6,6,7,7,8,8,9,9,10,10,11,11,12,12,15,15,16,16,17,17,18,18,19,19,20,20,21,21,22,22,23,23,24,24,25,25,26,26,27,27,28,28,29,29,30,30,31,31,32,32,33,33,34,34,35,35,36,36,37,37,38,38,39,39,40,40,45,45,47,47,48,48,49,49,50,50],"right_children":[2,4,6,8,10,12,14,16,18,20,22,24,26,-1,-1,28,30,32,34,36,38,40,42,44,46,48,50,52,54,56,58,60,62,64,66,68,70,72,74,76,78,-1,-1,-1,-1,80,-1,82,84,86,88,-1,-1,-1,-1,-1,-1,-1,-1,-1,-1,-1,-1,-1,-1,-1,-1,-1,-1,-1,-1,-1,-1,-1,-1,-1,-1,-1,-1,-1,-1,-1,-1,-1,-1,-1,-1,-1,-1],"split_conditions":[2.2666666E1,2.3E1,4.6666668E1,1.4333333E1,1.9E1,1.9E1,6.1E1,1.1E1,2.1E1,1.7333334E1,1.2591167E1,1.1E1,2.4115741E2,1.36541E0,-1.4761305E-1,8E0,1.3333333E1,1.6666666E1,9E0,2.0188908E1,1.0932834E1,9E0,1.5E1,3E1,3.1E1,3.938779E1,3.1268185E2,8E0,6E0,2.5E1,1.8E1,1E1,1.7E1,3.6E1,3.5E1,1.1E1,1.5E1,1.5E0,1.2E1,2.0666666E1,7.2E0,-3.451681E-2,-1.6523288E-1,1.2258554E0,2.8470325E-1,2.5E1,9.5748025E-1,2E1,4.8E1,1E-1,1.2313893E1,-2.182871E-1,-5.6115884E-1,5.615558E-1,-4.471022E-2,-2.5772387E-1,-6.7477494E-1,-2.1122836E-2,-3.9727274E-1,7.1382487E-1,7.187467E-3,4.5314392E-1,1.7171569E-1,4.8306277E-1,1.3444196E-1,-1.5420666E-1,-8.904407E-1,-2.3025686E-1,-3.1895258E-2,-7.7130306E-1,-1.728686E-1,-2.4262942E-1,8.705492E-2,-2.1075268E-1,3.0932638E-1,-3.5424253E-1,1.6109277E-2,-7.8921866E-1,-1.4127131E-1,4.974383E-1,1.796226E-1,1.3848725E-1,-3.0584887E-1,2.824859E-1,-2.1010917E-1,-4.2480966E-1,-5.8852356E-2,5.288615E-1,1.2470086E-2],"split_indices":[3,0,3,3,1,1,1,0,1,3,4,1,7,0,0,3,3,3,0,6,4,2,2,0,3,7,7,0,1,2,1,0,0,1,1,1,2,5,2,3,5,0,0,0,0,0,0,2,0,5,6,0,0,0,0,0,0,0,0,0,0,0,0,0,0,0,0,0,0,0,0,0,0,0,0,0,0,0,0,0,0,0,0,0,0,0,0,0,0],"split_type":[0,0,0,0,0,0,0,0,0,0,0,0,0,0,0,0,0,0,0,0,0,0,0,0,0,0,0,0,0,0,0,0,0,0,0,0,0,0,0,0,0,0,0,0,0,0,0,0,0,0,0,0,0,0,0,0,0,0,0,0,0,0,0,0,0,0,0,0,0,0,0,0,0,0,0,0,0,0,0,0,0,0,0,0,0,0,0,0,0],"sum_hessian":[9.49E2,6.82E2,2.67E2,6.18E2,6.4E1,2.6E2,7E0,3.13E2,3.05E2,4E1,2.4E1,3.4E1,2.26E2,6E0,1E0,1.74E2,1.39E2,2.08E2,9.7E1,9E0,3.1E1,2E1,4E0,4E0,3E1,1.79E2,4.7E1,3.7E1,1.37E2,9.6E1,4.3E1,1.19E2,8.9E1,9E0,8.8E1,3E0,6E0,2.4E1,7E0,4E0,1.6E1,1E0,3E0,3E0,1E0,2.6E1,4E0,1.7E1,1.62E2,3.4E1,1.3E1,3.2E1,5E0,7E0,1.3E2,9E1,6E0,3.7E1,6E0,5E0,1.14E2,3.2E1,5.7E1,7E0,2E0,8.3E1,5E0,2E0,1E0,5E0,1E0,1.7E1,7E0,1E0,6E0,2E0,2E0,1.5E1,1E0,1.1E1,1.5E1,4E0,1.3E1,1.5E2,1.2E1,1.6E1,1.8E1,5E0,8E0],"tree_param":{"num_deleted":"0","num_feature":"8","num_nodes":"89","size_leaf_vector":"1"}},{"base_weights":[2.4614131E-2,-1.2894633E-1,8.2537645E-1,-8.217926E-2,-1.323444E0,2.0082896E0,5.3253156E-1,-2.4454361E-1,2.9702666E-1,5.687908E-1,-1.6364337E0,1.2675362E0,1.6990473E0,2.9284087E-1,1.5723541E0,-1.6568197E-1,-1.1503505E0,5.414851E-1,-5.987424E-1,2.6902333E-1,5.1240284E-2,-2.4253461E0,-7.869839E-1,1.0453011E0,2.6143548E0,8.191725E-1,-3.6571875E-1,-2.6227084E-1,1.7233007E0,-3.9238653E-1,2.9496115E-2,8.5575485E-1,-1.3222022E0,1.3170998E0,4.4966035E-2,1.8229818E-1,-8.780891E-1,2.608223E-2,-3.0241015E-3,-2.7623746E0,-1.1433793E-1,3.0324554E-1,-9.9395925E-1,1.208138E0,-5.147877E-2,4.002275E0,3.7485123E-1,1.1231644E0,-4.1439423E-1,-1.2806137E-1,-1.3285255E0,2.334255E0,7.567301E-1,-8.436135E-2,-3.2910967E-1,5.126847E-1,-1.47110075E-2,2.9887542E-1,6.513977E-2,-3.119389E-1,-6.538203E-1,3.120077E-1,5.9149134E-1,1.2200427E-1,-1.3373789E-1,-3.3261356E-1,3.0681485E-1,-3.9591816E-1,-1.1707073E-1,-1.0220872E0,-4.972189E-1,2.4641505E-1,-1.0995455E-1,-1.8129523E-1,-4.2557833E-1,4.4186023E-1,9.9348E-2,1.4761659E0,5.249718E-1,1.6876642E-1,5.670636E-1,1.452978E-1,-4.1815063E-1,1.2261299E-1,-2.2415403E-1,-1.961708E-3,-5.115906E-1,8.055776E-1,8.0747224E-2,2.8012583E-1,-1.2547103E-1],"categories":[],"categories_nodes":[],"categories_segments":[],"categories_sizes":[],"default_left":[0,0,0,0,0,0,0,0,0,0,0,0,0,0,0,0,0,0,0,0,0,0,0,0,0,0,0,0,0,0,0,0,0,0,0,0,0,0,0,0,0,0,0,0,0,0,0,0,0,0,0,0,0,0,0,0,0,0,0,0,0,0,0,0,0,0,0,0,0,0,0,0,0,0,0,0,0,0,0,0,0,0,0,0,0,0,0,0,0,0,0],"id":10,"left_children":[1,3,5,7,9,11,13,15,17,19,21,-1,23,25,27,29,31,33,35,-1,37,39,41,43,45,47,49,-1,51,53,55,57,59,61,63,65,67,-1,-1,69,-1,71,73,75,-1,77,-1,79,81,83,85,87,89,-1,-1,-1,-1,-1,-1,-1,-1,-1,-1,-1,-1,-1,-1,-1,-1,-1,-1,-1,-1,-1,-1,-1,-1,-1,-1,-1,-1,-1,-1,-1,-1,-1,-1,-1,-1,-1,-1],"loss_changes":[1.1692359E2,4.4470043E1,5.193126E1,4.74196E1,1.8698284E1,1.3387459E1,3.0444782E1,3.8312023E1,5.0908188E1,8.0271316E-1,1.55149765E1,0E0,1.4021812E1,3.56549E1,1.0000576E1,2.2002712E1,1.5955856E1,7.003033E1,1.106913E1,0E0,7.44392E-3,7.903679E0,3.4605217E0,3.7741127E0,1.5836487E1,2.184011E1,1.0355502E1,0E0,1.12252655E1,1.771061E1,3.5430897E1,1.4257836E-1,7.416977E0,1.0825699E1,2.0062956E1,1.632373E1,7.456814E0,0E0,0E0,2.1880646E0,0E0,1.3421348E0,1.1281862E0,3.2268353E0,0E0,1.7309952E0,0E0,1.8717312E1,1.1237992E1,1.2933736E1,4.4716864E0,8.700378E0,2.4704866E0,0E0,0E0,0E0,0E0,0E0,0E0,0E0,0E0,0E0,0E0,0E0,0E0,0E0,0E0,0E0,0E0,0E0,0E0,0E0,0E0,0E0,0E0,0E0,0E0,0E0,0E0,0E0,0E0,0E0,0E0,0E0,0E0,0E0,0E0,0E0,0E0,0E0,0E0],"parents":[2147483647,0,0,1,1,2,2,3,3,4,4,5,5,6,6,7,7,8,8,9,9,10,10,12,12,13,13,14,14,15,15,16,16,17,17,18,18,20,20,21,21,22,22,23,23,24,24,25,25,26,26,28,28,29,29,30,30,31,31,32,32,33,33,34,34,35,35,36,36,39,39,41,41,42,42,43,43,45,45,47,47,48,48,49,49,50,50,51,51,52,52],"right_children":[2,4,6,8,10,12,14,16,18,20,22,-1,24,26,28,30,32,34,36,-1,38,40,42,44,46,48,50,-1,52,54,56,58,60,62,64,66,68,-1,-1,70,-1,72,74,76,-1,78,-1,80,82,84,86,88,90,-1,-1,-1,-1,-1,-1,-1,-1,-1,-1,-1,-1,-1,-1,-1,-1,-1,-1,-1,-1,-1,-1,-1,-1,-1,-1,-1,-1,-1,-1,-1,-1,-1,-1,-1,-1,-1,-1],"split_conditions":[2.9E1,3E1,2.6E1,1.8333334E1,1.5E1,2.3E1,4.0333332E1,2E1,2.9E1,1.3E1,2.2474535E2,1.2675362E0,1.5941944E1,3.7E1,2.1389902E1,1.2666667E1,8E0,2.1E1,1.6E1,2.6902333E-1,3.1E1,7.2E0,-4.1005006E0,4.6E1,1.858451E1,4.8E1,4.6E1,-2.6227084E-1,3.5E1,1.3E1,8E0,2.2E1,1.8E1,2.2333334E1,2E1,2.0666666E1,2.4E1,2.608223E-2,-3.0241015E-3,2.3E1,-1.1433793E-1,3.1E1,1.6548256E1,2.742072E2,-5.147877E-2,1.6E1,3.7485123E-1,3.3333332E1,2.5E1,3.7E1,1.2864649E1,2.1724544E2,5.4E1,-8.436135E-2,-3.2910967E-1,5.126847E-1,-1.47110075E-2,2.9887542E-1,6.513977E-2,-3.119389E-1,-6.538203E-1,3.120077E-1,5.9149134E-1,1.2200427E-1,-1.3373789E-1,-3.3261356E-1,3.0681485E-1,-3.9591816E-1,-1.1707073E-1,-1.0220872E0,-4.972189E-1,2.4641505E-1,-1.0995455E-1,-1.8129523E-1,-4.2557833E-1,4.4186023E-1,9.9348E-2,1.4761659E0,5.249718E-1,1.6876642E-1,5.670636E-1,1.452978E-1,-4.1815063E-1,1.2261299E-1,-2.2415403E-1,-1.961708E-3,-5.115906E-1,8.055776E-1,8.0747224E-2,2.8012583E-1,-1.2547103E-1],"split_indices":[3,0,1,3,1,0,3,0,1,1,7,0,6,0,7,3,1,0,0,0,0,5,4,0,6,1,0,0,2,0,1,0,1,3,1,3,3,0,0,2,0,0,6,7,0,2,0,3,0,1,6,7,0,0,0,0,0,0,0,0,0,0,0,0,0,0,0,0,0,0,0,0,0,0,0,0,0,0,0,0,0,0,0,0,0,0,0,0,0,0,0],"split_type":[0,0,0,0,0,0,0,0,0,0,0,0,0,0,0,0,0,0,0,0,0,0,0,0,0,0,0,0,0,0,0,0,0,0,0,0,0,0,0,0,0,0,0,0,0,0,0,0,0,0,0,0,0,0,0,0,0,0,0,0,0,0,0,0,0,0,0,0,0,0,0,0,0,0,0,0,0,0,0,0,0,0,0,0,0,0,0,0,0,0,0],"sum_hessian":[9.49E2,7.97E2,1.52E2,7.68E2,2.9E1,2.9E1,1.23E2,5.38E2,2.3E2,4E0,2.5E1,2E0,2.7E1,1.01E2,2.2E1,4.96E2,4.2E1,1.81E2,4.9E1,2E0,2E0,1.2E1,1.3E1,1.7E1,1E1,5.6E1,4.5E1,1E0,2.1E1,2.29E2,2.67E2,3E0,3.9E1,7E1,1.11E2,1.3E1,3.6E1,1E0,1E0,1E1,2E0,2E0,1.1E1,1.5E1,2E0,4E0,6E0,4.5E1,1.1E1,3.7E1,8E0,1.2E1,9E0,1.99E2,3E1,1.1E1,2.56E2,2E0,1E0,3.1E1,8E0,5.1E1,1.9E1,6.4E1,4.7E1,5E0,8E0,1.8E1,1.8E1,5E0,5E0,1E0,1E0,7E0,4E0,1.1E1,4E0,2E0,2E0,2.7E1,1.8E1,6E0,5E0,2E1,1.7E1,2E0,6E0,1E1,2E0,8E0,1E0],"tree_param":{"num_deleted":"0","num_feature":"8","num_nodes":"91","size_leaf_vector":"1"}},{"base_weights":[2.0160165E-2,-9.812145E-2,5.8764476E-1,3.1987557E-1,-1.9064152E-1,5.139537E-1,3.4067984E0,4.2101517E-1,-3.2318392E-1,-1.5458523E-1,-1.2546675E0,1.3517561E0,2.8739715E-1,2.4660073E-1,1.198319E0,2.736074E-1,1.2738829E0,-7.231021E-1,3.0635732E-1,3.2950204E-2,-3.713346E-1,2.3463821E-1,-1.5159205E0,1.8680387E0,1.0243442E-1,-1.9121954E-1,6.173878E-1,9.991831E-1,1.8850492E-1,7.0060194E-1,5.3079575E-1,-1.8696764E-1,-1.2358656E0,-4.0942535E-1,1.8915944E-1,-2.3522685E-1,-8.482897E-1,1.2118349E-1,4.3554306E-2,-2.0862484E0,-7.137873E-1,1.3007628E0,9.179656E-1,-3.448594E-1,7.0815885E-1,3.013664E-1,-5.5051816E-1,9.9896634E-1,-9.981791E-4,1.5740913E-1,5.095079E-1,-1.0244309E-1,8.460409E-2,6.998048E-2,2.6026914E-1,-1.5142848E-1,1.8506221E-1,-1.8484478E-1,-6.1900294E-1,-7.858962E-2,-3.964524E-1,-1.6163338E-2,1.552616E-1,-1.1249031E-2,-1.6589467E-1,-3.4585205E-1,-1.4607075E-1,2.2169782E-2,-2.5703432E-3,-7.480418E-1,-9.147034E-2,-6.200569E-2,-3.2343945E-1,5.243176E-1,1.5707825E-1,-9.290791E-3,-3.3423E-1,3.4009513E-1,1.3984299E-2,1.4921288E-1,-2.2620736E-1,-3.4192967E-1,-9.934924E-2,4.2502245E-1,3.9789965E-3,4.5658663E-2,-3.1044188E-1],"categories":[],"categories_nodes":[],"categories_segments":[],"categories_sizes":[],"default_left":[0,0,0,0,0,0,0,0,0,0,0,0,0,0,0,0,0,0,0,0,0,0,0,0,0,0,0,0,0,0,0,0,0,0,0,0,0,0,0,0,0,0,0,0,0,0,0,0,0,0,0,0,0,0,0,0,0,0,0,0,0,0,0,0,0,0,0,0,0,0,0,0,0,0,0,0,0,0,0,0,0,0,0,0,0,0,0],"id":11,"left_children":[1,3,5,7,9,11,13,15,17,19,21,23,25,-1,-1,27,29,31,-1,33,35,37,39,41,43,45,47,49,51,53,-1,55,57,59,61,63,65,-1,67,69,71,73,-1,75,77,79,81,83,85,-1,-1,-1,-1,-1,-1,-1,-1,-1,-1,-1,-1,-1,-1,-1,-1,-1,-1,-1,-1,-1,-1,-1,-1,-1,-1,-1,-1,-1,-1,-1,-1,-1,-1,-1,-1,-1,-1],"loss_changes":[6.3824505E1,3.0496725E1,3.2319466E1,9.436612E0,2.4551365E1,3.0170856E1,2.7918777E0,1.5240654E1,1.1491224E1,2.541735E1,8.526493E0,2.1738747E1,2.0334251E1,0E0,0E0,6.4187164E0,3.8728485E0,4.1674967E0,0E0,2.3296103E1,1.8626472E1,1.1181365E-1,6.7454796E0,1.2246361E1,3.2245202E0,9.546137E0,1.7934172E1,2.7581196E0,4.9034195E0,5.7789373E-1,0E0,2.6104782E0,2.8310823E0,1.1489428E1,1.9900173E1,1.424163E1,6.482559E0,0E0,5.3780857E-3,6.4938126E0,1.4400015E0,5.3374767E0,0E0,1.655696E0,1.3545637E0,5.1329756E0,3.6294174E0,1.9335915E1,4.90868E0,0E0,0E0,0E0,0E0,0E0,0E0,0E0,0E0,0E0,0E0,0E0,0E0,0E0,0E0,0E0,0E0,0E0,0E0,0E0,0E0,0E0,0E0,0E0,0E0,0E0,0E0,0E0,0E0,0E0,0E0,0E0,0E0,0E0,0E0,0E0,0E0,0E0,0E0],"parents":[2147483647,0,0,1,1,2,2,3,3,4,4,5,5,6,6,7,7,8,8,9,9,10,10,11,11,12,12,15,15,16,16,17,17,19,19,20,20,21,21,22,22,23,23,24,24,25,25,26,26,27,27,28,28,29,29,31,31,32,32,33,33,34,34,35,35,36,36,38,38,39,39,40,40,41,41,43,43,44,44,45,45,46,46,47,47,48,48],"right_children":[2,4,6,8,10,12,14,16,18,20,22,24,26,-1,-1,28,30,32,-1,34,36,38,40,42,44,46,48,50,52,54,-1,56,58,60,62,64,66,-1,68,70,72,74,-1,76,78,80,82,84,86,-1,-1,-1,-1,-1,-1,-1,-1,-1,-1,-1,-1,-1,-1,-1,-1,-1,-1,-1,-1,-1,-1,-1,-1,-1,-1,-1,-1,-1,-1,-1,-1,-1,-1,-1,-1,-1,-1],"split_conditions":[2.8E1,1.2413476E1,5.0666668E1,2.5E1,3E1,3E1,5.1E1,2.3333334E1,1.1384198E1,2.3777567E2,1.5E1,3.9E1,3.4666668E1,2.4660073E-1,1.198319E0,8E0,2E1,2E-1,3.0635732E-1,9.798275E1,2.1E1,1.3E1,2.2474535E2,3.2E1,2E-1,2.8E1,4E1,1.5333333E1,1.1333333E1,2.4E1,5.3079575E-1,1.7537E1,2.8E1,2.8E1,1.7333334E1,5.895334E0,2.2E1,1.2118349E-1,3.1E1,7.2E0,1.6548256E1,2.2E1,9.179656E-1,4.1E1,3.8161666E0,4.2E1,1.2522619E1,4.4E1,5.8E1,1.5740913E-1,5.095079E-1,-1.0244309E-1,8.460409E-2,6.998048E-2,2.6026914E-1,-1.5142848E-1,1.8506221E-1,-1.8484478E-1,-6.1900294E-1,-7.858962E-2,-3.964524E-1,-1.6163338E-2,1.552616E-1,-1.1249031E-2,-1.6589467E-1,-3.4585205E-1,-1.4607075E-1,2.2169782E-2,-2.5703432E-3,-7.480418E-1,-9.147034E-2,-6.200569E-2,-3.2343945E-1,5.243176E-1,1.5707825E-1,-9.290791E-3,-3.3423E-1,3.4009513E-1,1.3984299E-2,1.4921288E-1,-2.2620736E-1,-3.4192967E-1,-9.934924E-2,4.2502245E-1,3.9789965E-3,4.5658663E-2,-3.1044188E-1],"split_indices":[3,6,3,0,0,0,0,3,6,7,1,1,3,0,0,1,2,5,0,7,1,1,7,3,5,1,1,3,3,3,0,4,0,1,3,4,2,0,0,5,6,2,0,2,4,0,6,0,1,0,0,0,0,0,0,0,0,0,0,0,0,0,0,0,0,0,0,0,0,0,0,0,0,0,0,0,0,0,0,0,0,0,0,0,0,0,0],"split_type":[0,0,0,0,0,0,0,0,0,0,0,0,0,0,0,0,0,0,0,0,0,0,0,0,0,0,0,0,0,0,0,0,0,0,0,0,0,0,0,0,0,0,0,0,0,0,0,0,0,0,0,0,0,0,0,0,0,0,0,0,0,0,0,0,0,0,0,0,0,0,0,0,0,0,0,0,0,0,0,0,0,0,0,0,0,0,0],"sum_hessian":[9.49E2,7.86E2,1.63E2,1.42E2,6.44E2,1.6E2,3E0,1.23E2,1.9E1,6.24E2,2E1,3.3E1,1.27E2,1E0,2E0,1.06E2,1.7E1,1.5E1,4E0,3.35E2,2.89E2,3E0,1.7E1,2.3E1,1E1,5.2E1,7.5E1,1E1,9.6E1,9E0,8E0,8E0,7E0,8.7E1,2.48E2,2.26E2,6.3E1,1E0,2E0,9E0,8E0,1.7E1,6E0,6E0,4E0,2.2E1,3E1,4.6E1,2.9E1,7E0,3E0,1.4E1,8.2E1,3E0,6E0,6E0,2E0,5E0,2E0,7.6E1,1.1E1,1.43E2,1.05E2,1.4E2,8.6E1,3.3E1,3E1,1E0,1E0,7E0,2E0,4E0,4E0,1E1,7E0,5E0,1E0,2E0,2E0,1.9E1,3E0,7E0,2.3E1,3.2E1,1.4E1,2.6E1,3E0],"tree_param":{"num_deleted":"0","num_feature":"8","num_nodes":"87","size_leaf_vector":"1"}},{"base_weights":[1.5857138E-2,-5.5513892E-2,5.345556E-1,2.811328E-1,-1.3376819E-1,4.50803E-1,2.7459888E0,1.6769496E-1,2.1405263E0,-2.8716186E-1,2.7420893E-2,1.7654513E0,3.046076E-1,2.0961057E-1,9.5865524E-1,-6.584308E-1,3.302779E-1,8.391614E-1,1.0557426E0,-1.5449663E-1,-7.156309E-1,4.1393813E-1,-2.3955253E-1,2.1394048E0,5.5107117E-2,7.213456E-1,1.1249177E-1,-3.9527556E-1,-4.2776302E-1,7.246378E-1,1.4516668E-1,3.5244027E-1,8.692646E-2,-4.265105E-1,8.7955825E-2,-4.047813E-1,-1.188684E0,6.544183E-1,-2.987167E-1,-7.0444465E-1,-1.0125385E-1,6.7819166E-1,1.7542993E-1,6.394444E-2,-3.9146233E-2,9.807613E-1,-1.7949653E-1,-8.200888E-2,7.351414E-1,-7.6140754E-2,-3.9868152E-1,1.5082075E-1,3.791847E-1,-2.3643278E-1,9.149969E-2,5.9270933E-2,-1.6383761E-1,1.2255117E-1,-5.4088566E-2,-6.648287E-2,-2.6191464E-1,-4.064909E-1,-7.268538E-2,9.6403226E-2,2.8688756E-1,-2.1802415E-1,1.746712E-1,-1.5302677E-1,-5.64822E-1,1.0985687E-1,-1.0797656E-1,1.8174912E-1,5.5749667E-1,7.543956E-2,-2.9447633E-1,7.414147E-2,-2.0111199E-1,3.90775E-1,6.2302154E-2],"categories":[],"categories_nodes":[],"categories_segments":[],"categories_sizes":[],"default_left":[0,0,0,0,0,0,0,0,0,0,0,0,0,0,0,0,0,0,0,0,0,0,0,0,0,0,0,0,0,0,0,0,0,0,0,0,0,0,0,0,0,0,0,0,0,0,0,0,0,0,0,0,0,0,0,0,0,0,0,0,0,0,0,0,0,0,0,0,0,0,0,0,0,0,0,0,0,0,0],"id":12,"left_children":[1,3,5,7,9,11,13,15,17,19,21,23,25,-1,-1,27,29,-1,31,33,35,37,39,41,43,45,47,-1,49,51,53,-1,-1,55,57,59,61,63,65,67,69,-1,-1,-1,-1,71,73,75,77,-1,-1,-1,-1,-1,-1,-1,-1,-1,-1,-1,-1,-1,-1,-1,-1,-1,-1,-1,-1,-1,-1,-1,-1,-1,-1,-1,-1,-1,-1],"loss_changes":[3.5198715E1,2.206123E1,2.0061623E1,3.296728E1,1.6796412E1,2.0988132E1,1.4485378E0,2.036456E1,3.4580574E0,1.9670784E1,3.435818E1,6.9175835E0,8.0851755E0,0E0,0E0,3.2375288E0,9.092864E0,0E0,1.1558151E-1,1.764628E1,1.1576809E1,2.350308E1,1.2594583E1,3.743286E-1,1.158078E-1,7.6542053E0,8.658796E0,0E0,2.7980905E0,4.151537E0,1.3217956E1,0E0,0E0,9.513708E0,1.22838545E1,4.1809654E0,4.707634E0,9.9484215E0,1.36207695E1,9.3449955E0,1.8631433E1,0E0,0E0,0E0,0E0,7.0997868E0,3.0121996E0,1.0816889E1,4.817709E0,0E0,0E0,0E0,0E0,0E0,0E0,0E0,0E0,0E0,0E0,0E0,0E0,0E0,0E0,0E0,0E0,0E0,0E0,0E0,0E0,0E0,0E0,0E0,0E0,0E0,0E0,0E0,0E0,0E0,0E0],"parents":[2147483647,0,0,1,1,2,2,3,3,4,4,5,5,6,6,7,7,8,8,9,9,10,10,11,11,12,12,15,15,16,16,18,18,19,19,20,20,21,21,22,22,23,23,24,24,25,25,26,26,28,28,29,29,30,30,33,33,34,34,35,35,36,36,37,37,38,38,39,39,40,40,45,45,46,46,47,47,48,48],"right_children":[2,4,6,8,10,12,14,16,18,20,22,24,26,-1,-1,28,30,-1,32,34,36,38,40,42,44,46,48,-1,50,52,54,-1,-1,56,58,60,62,64,66,68,70,-1,-1,-1,-1,72,74,76,78,-1,-1,-1,-1,-1,-1,-1,-1,-1,-1,-1,-1,-1,-1,-1,-1,-1,-1,-1,-1,-1,-1,-1,-1,-1,-1,-1,-1,-1,-1],"split_conditions":[3.1666666E1,1E1,5.0666668E1,1.8E1,1.7333334E1,3E1,5.1E1,7.3333335E0,2.2E1,1.6E1,2.1E1,2.1581126E2,3.1E1,2.0961057E-1,9.5865524E-1,5.6666665E0,1E1,8.391614E-1,9E0,1.3E1,1.5E1,3E1,2.0666666E1,2.9E1,2.1E1,4.6E1,4.2E1,-3.9527556E-1,9E0,1.0666667E1,9.333333E0,3.5244027E-1,8.692646E-2,7E0,1.6E1,2.1E1,2.9E1,1.9333334E1,2.4E1,2.8E1,2.1E1,6.7819166E-1,1.7542993E-1,6.394444E-2,-3.9146233E-2,3.6E1,2.3E1,4E1,4.2E1,-7.6140754E-2,-3.9868152E-1,1.5082075E-1,3.791847E-1,-2.3643278E-1,9.149969E-2,5.9270933E-2,-1.6383761E-1,1.2255117E-1,-5.4088566E-2,-6.648287E-2,-2.6191464E-1,-4.064909E-1,-7.268538E-2,9.6403226E-2,2.8688756E-1,-2.1802415E-1,1.746712E-1,-1.5302677E-1,-5.64822E-1,1.0985687E-1,-1.0797656E-1,1.8174912E-1,5.5749667E-1,7.543956E-2,-2.9447633E-1,7.414147E-2,-2.0111199E-1,3.90775E-1,6.2302154E-2],"split_indices":[3,1,3,3,3,0,0,3,0,0,0,7,1,0,0,3,0,0,1,3,1,1,3,0,0,0,3,0,0,3,3,0,0,0,1,0,2,3,3,0,1,0,0,0,0,3,2,0,1,0,0,0,0,0,0,0,0,0,0,0,0,0,0,0,0,0,0,0,0,0,0,0,0,0,0,0,0,0,0],"split_type":[0,0,0,0,0,0,0,0,0,0,0,0,0,0,0,0,0,0,0,0,0,0,0,0,0,0,0,0,0,0,0,0,0,0,0,0,0,0,0,0,0,0,0,0,0,0,0,0,0,0,0,0,0,0,0,0,0,0,0,0,0,0,0,0,0,0,0,0,0,0,0,0,0,0,0,0,0,0,0],"sum_hessian":[9.49E2,8.35E2,1.14E2,1.57E2,6.78E2,1.11E2,3E0,1.49E2,8E0,3.47E2,3.31E2,1E1,1.01E2,1E0,2E0,2.4E1,1.25E2,4E0,4E0,2.66E2,8.1E1,1.35E2,1.96E2,8E0,2E0,3.1E1,7E1,5E0,1.9E1,3.9E1,8.6E1,3E0,1E0,1.25E2,1.41E2,5E1,3.1E1,1.01E2,3.4E1,4.4E1,1.52E2,7E0,1E0,1E0,1E0,2.4E1,7E0,5.4E1,1.6E1,1.7E1,2E0,2.9E1,1E1,1.2E1,7.4E1,2E1,1.05E2,6.4E1,7.7E1,3.7E1,1.3E1,2.6E1,5E0,4.9E1,5.2E1,2.3E1,1.1E1,3.9E1,5E0,5.4E1,9.8E1,1.8E1,6E0,5E0,2E0,3.5E1,1.9E1,7E0,9E0],"tree_param":{"num_deleted":"0","num_feature":"8","num_nodes":"79","size_leaf_vector":"1"}},{"base_weights":[1.3696657E-2,-7.683418E-2,2.6611853E-1,1.2178713E-2,-3.7015995E-1,7.118823E-1,6.846178E-2,-3.35863E-2,8.469553E-1,4.0121475E-1,-4.3411833E-1,1.6940595E0,4.859079E-1,-1.1245822E-1,4.87041E-1,1.9646773E-2,-6.1341715E-1,1.1991624E0,2.7741575E-1,-2.9073852E-1,1.0358516E0,-6.152797E-1,-1.567445E-1,1.9915466E0,4.5245504E-1,2.843479E-1,1.1854545E0,-1.8608594E-2,-4.3776616E-1,-2.556141E-1,5.5626106E-1,-1.0355879E-1,3.632716E-1,7.912144E-2,-1.1152098E0,1.5154023E0,3.6682191E-1,5.112869E-1,-5.946267E-1,-2.178342E-1,2.8634453E-2,2.6389822E-1,3.8755602E-1,-3.8591227E-1,-1.006716E0,-4.76971E-2,-8.732213E-1,1.6481668E-1,6.242471E-1,2.3930876E-1,-8.749008E-2,4.349515E-1,-3.766221E-1,1.3821205E0,3.6392212E-3,2.0873116E-1,-3.8193867E-1,8.5072035E-1,2.8400093E-1,1.5298696E-2,-8.897436E-2,2.6372924E-1,2.05736E-2,-2.4174415E-1,1.9874546E-1,-4.139513E-1,-1.1411877E-1,5.2758527E-1,1.7679535E-1,-3.6407378E-2,1.4661884E-1,2.777956E-1,8.755925E-2,-2.2158696E-1,-4.5995094E-2,1.025734E-1,-4.054878E-2,1.0039959E-1,1.8354608E-2,-3.359772E-2,-2.2618909E-1,-2.1936944E-1,-5.776449E-1,3.3170402E-2,-2.0292643E-1,-8.3238035E-2,-3.0766952E-1,1.7607462E-1,-8.5277796E-2,3.182745E-2,-1.7959659E-1,4.9187943E-1,1.3717976E-1,2.2859573E-2,-2.1221925E-2,1.07601255E-1,-1.9660768E-1,-4.6551535E-1,-7.843121E-2,-4.4270754E-2,3.0010808E-1,3.8226403E-2,3.5748696E-1],"categories":[],"categories_nodes":[],"categories_segments":[],"categories_sizes":[],"default_left":[0,0,0,0,0,0,0,0,0,0,0,0,0,0,0,0,0,0,0,0,0,0,0,0,0,0,0,0,0,0,0,0,0,0,0,0,0,0,0,0,0,0,0,0,0,0,0,0,0,0,0,0,0,0,0,0,0,0,0,0,0,0,0,0,0,0,0,0,0,0,0,0,0,0,0,0,0,0,0,0,0,0,0,0,0,0,0,0,0,0,0,0,0,0,0,0,0,0,0,0,0,0,0],"id":13,"left_children":[1,3,5,7,9,11,13,15,17,19,21,23,25,27,29,31,33,35,37,39,41,43,45,47,49,51,53,55,-1,-1,57,59,61,63,65,67,69,71,73,-1,75,77,-1,79,81,83,85,-1,-1,-1,-1,87,89,91,93,95,97,99,101,-1,-1,-1,-1,-1,-1,-1,-1,-1,-1,-1,-1,-1,-1,-1,-1,-1,-1,-1,-1,-1,-1,-1,-1,-1,-1,-1,-1,-1,-1,-1,-1,-1,-1,-1,-1,-1,-1,-1,-1,-1,-1,-1,-1],"loss_changes":[2.1729813E1,1.8281351E1,2.2066427E1,2.0581963E1,8.215921E0,1.6266758E1,1.3307408E1,1.5784669E1,5.2840176E0,6.0099697E0,7.4912224E0,4.2699738E0,8.68696E0,1.5519201E1,5.3866234E0,1.9893435E1,1.50312E1,3.9188442E0,2.7513723E0,9.9412197E-1,1.0424323E0,7.781723E0,4.7242756E0,2.7308655E-1,1.2601938E0,5.2405796E0,3.248888E0,9.661249E0,0E0,0E0,3.8470402E0,1.0337158E1,1.8788986E1,1.0342377E1,4.33642E0,1.6664696E0,4.1638815E-1,6.3968086E-1,7.7397585E-2,0E0,3.0278274E-1,2.2561401E-2,0E0,5.863739E0,6.9445267E0,5.4480667E0,4.4153023E-1,0E0,0E0,0E0,0E0,4.757187E0,1.1352966E0,2.1078205E0,2.1580938E-2,9.563478E0,5.937519E0,3.7328377E0,3.8273852E0,0E0,0E0,0E0,0E0,0E0,0E0,0E0,0E0,0E0,0E0,0E0,0E0,0E0,0E0,0E0,0E0,0E0,0E0,0E0,0E0,0E0,0E0,0E0,0E0,0E0,0E0,0E0,0E0,0E0,0E0,0E0,0E0,0E0,0E0,0E0,0E0,0E0,0E0,0E0,0E0,0E0,0E0,0E0,0E0],"parents":[2147483647,0,0,1,1,2,2,3,3,4,4,5,5,6,6,7,7,8,8,9,9,10,10,11,11,12,12,13,13,14,14,15,15,16,16,17,17,18,18,19,19,20,20,21,21,22,22,23,23,24,24,25,25,26,26,27,27,30,30,31,31,32,32,33,33,34,34,35,35,36,36,37,37,38,38,40,40,41,41,43,43,44,44,45,45,46,46,51,51,52,52,53,53,54,54,55,55,56,56,57,57,58,58],"right_children":[2,4,6,8,10,12,14,16,18,20,22,24,26,28,30,32,34,36,38,40,42,44,46,48,50,52,54,56,-1,-1,58,60,62,64,66,68,70,72,74,-1,76,78,-1,80,82,84,86,-1,-1,-1,-1,88,90,92,94,96,98,100,102,-1,-1,-1,-1,-1,-1,-1,-1,-1,-1,-1,-1,-1,-1,-1,-1,-1,-1,-1,-1,-1,-1,-1,-1,-1,-1,-1,-1,-1,-1,-1,-1,-1,-1,-1,-1,-1,-1,-1,-1,-1,-1,-1,-1],"split_conditions":[2.3333334E1,1.9E1,2.5E1,1.9666666E1,9E0,2.3E1,3.6666668E1,2.3E1,2.8E1,-2.400834E-1,2.0666666E1,2.2E1,3.3333332E1,4.2E1,1.0105681E1,1.5E1,1.2E1,1.8E1,4.3E1,1.5333333E1,8E0,1.8E1,3.3E1,-9.979668E0,2E1,3.6E1,1.4566167E1,3.7E1,-4.3776616E-1,-2.556141E-1,3.2E1,1.2E1,1.4E1,1.5666667E1,2.5015459E2,2.1407139E1,7.16617E0,2.1E1,1.5E1,-2.178342E-1,7E0,2E1,3.8755602E-1,1.8775301E1,4.4999995E0,1.5089084E1,1.3849476E1,1.6481668E-1,6.242471E-1,2.3930876E-1,-8.749008E-2,1.5E0,2E1,1.858451E1,3.9E1,1.7207834E1,2.1E1,1.1315308E2,2.6999998E0,1.5298696E-2,-8.897436E-2,2.6372924E-1,2.05736E-2,-2.4174415E-1,1.9874546E-1,-4.139513E-1,-1.1411877E-1,5.2758527E-1,1.7679535E-1,-3.6407378E-2,1.4661884E-1,2.777956E-1,8.755925E-2,-2.2158696E-1,-4.5995094E-2,1.025734E-1,-4.054878E-2,1.0039959E-1,1.8354608E-2,-3.359772E-2,-2.2618909E-1,-2.1936944E-1,-5.776449E-1,3.3170402E-2,-2.0292643E-1,-8.3238035E-2,-3.0766952E-1,1.7607462E-1,-8.5277796E-2,3.182745E-2,-1.7959659E-1,4.9187943E-1,1.3717976E-1,2.2859573E-2,-2.1221925E-2,1.07601255E-1,-1.9660768E-1,-4.6551535E-1,-7.843121E-2,-4.4270754E-2,3.0010808E-1,3.8226403E-2,3.5748696E-1],"split_indices":[3,0,1,3,1,0,3,1,1,4,3,2,3,0,6,3,0,0,2,3,2,1,2,4,0,0,4,1,0,0,2,1,0,3,7,6,6,2,0,0,1,0,0,6,5,4,6,0,0,0,0,5,1,6,0,4,2,7,5,0,0,0,0,0,0,0,0,0,0,0,0,0,0,0,0,0,0,0,0,0,0,0,0,0,0,0,0,0,0,0,0,0,0,0,0,0,0,0,0,0,0,0,0],"split_type":[0,0,0,0,0,0,0,0,0,0,0,0,0,0,0,0,0,0,0,0,0,0,0,0,0,0,0,0,0,0,0,0,0,0,0,0,0,0,0,0,0,0,0,0,0,0,0,0,0,0,0,0,0,0,0,0,0,0,0,0,0,0,0,0,0,0,0,0,0,0,0,0,0,0,0,0,0,0,0,0,0,0,0,0,0,0,0,0,0,0,0,0,0,0,0,0,0,0,0,0,0,0,0],"sum_hessian":[9.49E2,6.99E2,2.5E2,5.37E2,1.62E2,7.6E1,1.74E2,5.1E2,2.7E1,1.2E1,1.5E2,1.3E1,6.3E1,1.22E2,5.2E1,4.68E2,4.2E1,1.6E1,1.1E1,6E0,6E0,9E1,6E1,1E1,3E0,5E1,1.3E1,1.15E2,7E0,2E0,5E1,3.45E2,1.23E2,1.8E1,2.4E1,1.1E1,5E0,9E0,2E0,2E0,4E0,2E0,4E0,5.8E1,3.2E1,5.3E1,7E0,1E0,9E0,2E0,1E0,4.1E1,9E0,1.1E1,2E0,7.1E1,4.4E1,2.3E1,2.7E1,1.92E2,1.53E2,4.4E1,7.9E1,7E0,1.1E1,1.7E1,7E0,8E0,3E0,1E0,4E0,2E0,7E0,1E0,1E0,1E0,3E0,1E0,1E0,3.4E1,2.4E1,2.6E1,6E0,4.3E1,1E1,2E0,5E0,3.4E1,7E0,3E0,6E0,8E0,3E0,1E0,1E0,6.1E1,1E1,3E0,4.1E1,3E0,2E1,2.4E1,3E0],"tree_param":{"num_deleted":"0","num_feature":"8","num_nodes":"103","size_leaf_vector":"1"}},{"base_weights":[9.718941E-3,1.2736854E-3,2.0067034E0,-2.9527187E-1,4.5484386E-2,1.72435E-1,6.877247E-1,-2.1471731E-1,-1.0959439E0,4.8987606E-1,-1.6486706E-2,-1.427339E-2,-4.8585445E-1,-1.2407675E0,5.2843884E-2,3.787203E-1,1.0567209E0,-8.6801305E-2,2.3037188E-1,-6.290312E-1,2.2936559E-1,-3.514721E-2,-9.7422546E-1,-1.0102273E-1,-1.3037989E0,6.9152284E-1,1.0444755E-1,1.300393E0,6.0629845E-4,4.8751524E-1,-1.3385448E-1,5.27417E-1,-2.834947E-2,-7.58179E-2,-2.4824455E-1,3.0107749E-1,2.1810848E-2,-2.0958011E-1,1.0715605E-1,-3.180704E-1,-1.4225865E-2,-1.65475E-1,-4.3197605E-1,4.3805557E-1,1.4526758E-1,-2.2787517E-2,1.7463644E-1,2.0735185E-1,4.4830814E-1,4.043732E-2,-6.02922E-2,2.0617498E-1,7.4069435E-3,-2.899932E-2,-2.2921053E-1,1.9999593E-1,-7.773805E-2,-1.335701E-1,6.311289E-2],"categories":[],"categories_nodes":[],"categories_segments":[],"categories_sizes":[],"default_left":[0,0,0,0,0,0,0,0,0,0,0,0,0,0,0,0,0,0,0,0,0,0,0,0,0,0,0,0,0,0,0,0,0,0,0,0,0,0,0,0,0,0,0,0,0,0,0,0,0,0,0,0,0,0,0,0,0,0,0],"id":14,"left_children":[1,3,5,7,9,-1,-1,11,13,15,17,19,21,23,-1,25,27,29,31,33,35,37,39,-1,41,43,45,47,49,51,53,55,57,-1,-1,-1,-1,-1,-1,-1,-1,-1,-1,-1,-1,-1,-1,-1,-1,-1,-1,-1,-1,-1,-1,-1,-1,-1,-1],"loss_changes":[1.6019234E1,1.2429061E1,3.1882668E-1,7.6979094E0,2.2728115E1,0E0,0E0,6.1343646E0,2.2450714E0,5.963608E0,1.2604374E1,1.0029689E1,1.0531152E1,1.307745E-1,0E0,7.305991E0,4.116743E0,1.5333485E1,1.2388111E1,1.209755E0,5.74907E0,7.0172076E0,1.7831402E0,0E0,1.2729645E-1,5.6666145E0,4.0944514E0,5.0333405E-1,1.352855E-1,3.9580507E0,1.2183416E1,8.3863945E0,8.751993E0,0E0,0E0,0E0,0E0,0E0,0E0,0E0,0E0,0E0,0E0,0E0,0E0,0E0,0E0,0E0,0E0,0E0,0E0,0E0,0E0,0E0,0E0,0E0,0E0,0E0,0E0],"parents":[2147483647,0,0,1,1,2,2,3,3,4,4,7,7,8,8,9,9,10,10,11,11,12,12,13,13,15,15,16,16,17,17,18,18,19,19,20,20,21,21,22,22,24,24,25,25,26,26,27,27,28,28,29,29,30,30,31,31,32,32],"right_children":[2,4,6,8,10,-1,-1,12,14,16,18,20,22,24,-1,26,28,30,32,34,36,38,40,-1,42,44,46,48,50,52,54,56,58,-1,-1,-1,-1,-1,-1,-1,-1,-1,-1,-1,-1,-1,-1,-1,-1,-1,-1,-1,-1,-1,-1,-1,-1,-1,-1],"split_conditions":[5.0666668E1,1.0333333E1,5.1E1,2.5E1,1.1E1,1.72435E-1,6.877247E-1,9E0,2.961785E2,1.6E1,2.8E1,7E0,9E0,-5.6629996E0,5.2843884E-2,1.4E1,1.04349165E1,9E0,3.6E1,2.715027E2,6E0,8.666667E0,3.1436252E2,-1.0102273E-1,6E0,8E0,1.4E1,1.9369508E2,9E0,1.9245697E1,2.9E1,4.8E1,3.5E1,-7.58179E-2,-2.4824455E-1,3.0107749E-1,2.1810848E-2,-2.0958011E-1,1.0715605E-1,-3.180704E-1,-1.4225865E-2,-1.65475E-1,-4.3197605E-1,4.3805557E-1,1.4526758E-1,-2.2787517E-2,1.7463644E-1,2.0735185E-1,4.4830814E-1,4.043732E-2,-6.02922E-2,2.0617498E-1,7.4069435E-3,-2.899932E-2,-2.2921053E-1,1.9999593E-1,-7.773805E-2,-1.335701E-1,6.311289E-2],"split_indices":[3,3,0,2,0,0,0,0,7,3,3,3,1,4,0,1,4,1,0,7,1,3,7,0,0,0,3,7,0,6,0,1,3,0,0,0,0,0,0,0,0,0,0,0,0,0,0,0,0,0,0,0,0,0,0,0,0,0,0],"split_type":[0,0,0,0,0,0,0,0,0,0,0,0,0,0,0,0,0,0,0,0,0,0,0,0,0,0,0,0,0,0,0,0,0,0,0,0,0,0,0,0,0,0,0,0,0,0,0,0,0,0,0,0,0,0,0,0,0,0,0],"sum_hessian":[9.49E2,9.46E2,3E0,1.22E2,8.24E2,1E0,2E0,1.12E2,1E1,1E2,7.24E2,6.5E1,4.7E1,9E0,1E0,8.5E1,1.5E1,5.64E2,1.6E2,1.8E1,4.7E1,2.5E1,2.2E1,1E0,8E0,3.9E1,4.6E1,1.2E1,3E0,4.2E1,5.22E2,7.4E1,8.6E1,7E0,1.1E1,7E0,4E1,9E0,1.6E1,2E1,2E0,2E0,6E0,7E0,3.2E1,3.4E1,1.2E1,4E0,8E0,2E0,1E0,2.9E1,1.3E1,4.94E2,2.8E1,6.3E1,1.1E1,3.1E1,5.5E1],"tree_param":{"num_deleted":"0","num_feature":"8","num_nodes":"59","size_leaf_vector":"1"}},{"base_weights":[8.02086E-3,-2.6185492E-3,1.1207212E0,2.316733E-2,-3.6898535E-1,1.4484531E0,-1.7560324E-2,-7.183028E-2,1.3758153E-1,-5.668508E-1,1.0864955E-1,2.1751787E-1,5.4292005E-1,7.672806E-2,-8.4630206E-2,4.8913598E-2,-3.0410132E-1,1.9304495E-1,-3.2738325E-1,-7.0746005E-1,-8.070833E-2,5.24886E-1,-6.7988235E-1,-3.5066217E-1,1.4129056E-1,-1.4621569E-1,-6.443871E-1,5.2898085E-1,1.1388109E-1,-8.718427E-1,2.754985E-2,-2.3492898E-1,-8.4381855E-1,3.5678005E-1,-6.770504E-1,6.6997147E-1,1.5875491E-1,1.3290755E-1,-1.0315797E0,-4.709113E-2,-2.1905915E-1,6.3797876E-2,-1.0617698E-1,-2.0051779E-1,2.2432437E-2,-1.3934118E-1,-3.0605096E-1,1.9362655E-1,-1.7337672E-1,-4.6070972E-3,8.791005E-2,-5.019684E-2,-3.4543473E-1,2.1557984E-1,-6.1233576E-2,-1.3290797E-1,2.1447773E-1,-3.363347E-2,-2.8031525E-1,-3.5355594E-2,2.2266513E-1,-6.110382E-2,-2.7742139E-1,5.0904896E-2,2.1338916E-1,-6.540585E-3,6.280339E-2,1.9130674E-1,-1.3149834E-1,-3.8350344E-1,-1.3228646E-1],"categories":[],"categories_nodes":[],"categories_segments":[],"categories_sizes":[],"default_left":[0,0,0,0,0,0,0,0,0,0,0,0,0,0,0,0,0,0,0,0,0,0,0,0,0,0,0,0,0,0,0,0,0,0,0,0,0,0,0,0,0,0,0,0,0,0,0,0,0,0,0,0,0,0,0,0,0,0,0,0,0,0,0,0,0,0,0,0,0,0,0],"id":15,"left_children":[1,3,5,7,9,11,13,15,17,19,21,-1,-1,-1,-1,23,25,27,29,31,33,35,37,39,41,43,45,47,49,51,53,55,57,59,61,63,65,67,69,-1,-1,-1,-1,-1,-1,-1,-1,-1,-1,-1,-1,-1,-1,-1,-1,-1,-1,-1,-1,-1,-1,-1,-1,-1,-1,-1,-1,-1,-1,-1,-1],"loss_changes":[1.1249486E1,8.907707E0,3.3828955E0,9.585539E0,5.921049E0,5.1727104E-1,2.8906304E-1,1.3532713E1,1.0378614E1,2.950571E0,6.5929585E0,0E0,0E0,0E0,0E0,1.1787432E1,8.770608E0,9.460404E0,8.333626E0,1.992506E0,3.1113782E0,5.8420277E-1,2.138098E0,4.2961473E0,9.229081E0,1.3205135E1,3.0418587E0,9.137447E0,6.742113E0,3.1561375E0,4.4690986E0,2.095693E0,1.6181984E0,1.3680568E0,3.9789057E-1,6.537819E-2,5.0235704E-2,1.144564E0,1.6503525E-1,0E0,0E0,0E0,0E0,0E0,0E0,0E0,0E0,0E0,0E0,0E0,0E0,0E0,0E0,0E0,0E0,0E0,0E0,0E0,0E0,0E0,0E0,0E0,0E0,0E0,0E0,0E0,0E0,0E0,0E0,0E0,0E0],"parents":[2147483647,0,0,1,1,2,2,3,3,4,4,5,5,6,6,7,7,8,8,9,9,10,10,15,15,16,16,17,17,18,18,19,19,20,20,21,21,22,22,23,23,24,24,25,25,26,26,27,27,28,28,29,29,30,30,31,31,32,32,33,33,34,34,35,35,36,36,37,37,38,38],"right_children":[2,4,6,8,10,12,14,16,18,20,22,-1,-1,-1,-1,24,26,28,30,32,34,36,38,40,42,44,46,48,50,52,54,56,58,60,62,64,66,68,70,-1,-1,-1,-1,-1,-1,-1,-1,-1,-1,-1,-1,-1,-1,-1,-1,-1,-1,-1,-1,-1,-1,-1,-1,-1,-1,-1,-1,-1,-1,-1,-1],"split_conditions":[4.6E1,3.9E1,1.8445389E1,1.7333334E1,1.9376562E1,5.3E1,5.8E1,1.4E1,4.700001E0,3.4E1,2.5223133E1,2.1751787E-1,5.4292005E-1,7.672806E-2,-8.4630206E-2,8.666667E0,1.5E1,1.8E1,7.2999997E0,-1.8799998E-1,3.8E1,9.880751E0,2E1,9E0,2E1,1.3666667E1,1.8E1,3.6E1,1.6039202E1,1.8E1,2.1E1,5.3E1,1.2904882E1,3.3666668E1,3.9E1,4E1,1.3E1,1.7E1,2.5E1,-4.709113E-2,-2.1905915E-1,6.3797876E-2,-1.0617698E-1,-2.0051779E-1,2.2432437E-2,-1.3934118E-1,-3.0605096E-1,1.9362655E-1,-1.7337672E-1,-4.6070972E-3,8.791005E-2,-5.019684E-2,-3.4543473E-1,2.1557984E-1,-6.1233576E-2,-1.3290797E-1,2.1447773E-1,-3.363347E-2,-2.8031525E-1,-3.5355594E-2,2.2266513E-1,-6.110382E-2,-2.7742139E-1,5.0904896E-2,2.1338916E-1,-6.540585E-3,6.280339E-2,1.9130674E-1,-1.3149834E-1,-3.8350344E-1,-1.3228646E-1],"split_indices":[3,2,6,3,6,0,0,0,5,0,6,0,0,0,0,3,1,0,5,4,3,4,1,1,1,3,0,1,6,1,0,2,6,3,0,2,0,0,0,0,0,0,0,0,0,0,0,0,0,0,0,0,0,0,0,0,0,0,0,0,0,0,0,0,0,0,0,0,0,0,0],"split_type":[0,0,0,0,0,0,0,0,0,0,0,0,0,0,0,0,0,0,0,0,0,0,0,0,0,0,0,0,0,0,0,0,0,0,0,0,0,0,0,0,0,0,0,0,0,0,0,0,0,0,0,0,0,0,0,0,0,0,0,0,0,0,0,0,0,0,0,0,0,0,0],"sum_hessian":[9.49E2,9.41E2,8E0,8.8E2,6.1E1,6E0,2E0,4.81E2,3.99E2,4.3E1,1.8E1,3E0,3E0,1E0,1E0,3.17E2,1.64E2,3.57E2,4.2E1,3.3E1,1E1,1.2E1,6E0,5.9E1,2.58E2,1.13E2,5.1E1,6.7E1,2.9E2,1.6E1,2.6E1,8E0,2.5E1,6E0,4E0,8E0,4E0,2E0,4E0,4E1,1.9E1,2.26E2,3.2E1,3.3E1,8E1,3.6E1,1.5E1,6.1E1,6E0,1.69E2,1.21E2,5E0,1.1E1,6E0,2E1,7E0,1E0,3E0,2.2E1,3E0,3E0,2E0,2E0,1E0,7E0,1E0,3E0,1E0,1E0,2E0,2E0],"tree_param":{"num_deleted":"0","num_feature":"8","num_nodes":"71","size_leaf_vector":"1"}},{"base_weights":[4.73447E-3,-5.4130048E-2,1.3756661E-1,2.0957703E-3,-3.3476704E-1,5.181712E-1,1.2946263E-2,-1.8791272E-1,6.995078E-2,-5.6573294E-2,-6.020151E-1,6.648969E-1,-8.371315E-2,2.2575997E-1,-1.4930026E-1,5.8161777E-2,-3.433996E-1,4.647798E-1,-6.6728704E-3,9.38193E-2,-2.8555718E-1,-9.4511485E-1,-3.1515545E-1,3.2839152E-1,9.2804533E-1,-1.0124118E0,2.3282917E-1,9.6101835E-2,8.226359E-1,-8.0395854E-1,1.2618935E-2,-4.6809477E-1,2.4038704E-1,1.0122596E-1,-5.2850264E-1,9.6703124E-1,3.888003E-1,-3.1376117E-1,6.8169266E-2,-5.0366634E-1,2.8506276E-1,-1.1924608E0,-3.7289312E-1,-4.71581E-2,-7.032163E-1,3.3006403E-1,2.2263725E-1,4.0365943E-1,1.1156894E0,-3.742652E-1,-4.604931E-2,-2.1459851E-2,4.9069485E-1,3.2669023E-1,-7.2751515E-2,2.7745354E-1,1.2764143E0,-1.3148573E-1,-1.1126819E0,-9.35369E-2,4.2653129E-1,-2.3506875E-1,-6.9601394E-2,1.3447411E-1,-1.2151388E-1,-1.4612804E-1,1.2673393E-1,-6.776545E-2,-2.0561208E-1,1.07970886E-1,4.4525516E-1,8.300701E-2,2.1881735E-1,-4.736106E-3,-1.9175312E-1,3.5825856E-2,-1.672204E-1,5.4504707E-2,-3.0574673E-1,2.1633558E-1,3.5744324E-2,-1.2847835E-1,-3.7974098E-1,-1.6273184E-1,-7.6051E-3,4.7452305E-2,-2.0843709E-1,-4.957347E-2,-3.0563787E-1,1.0909636E-1,-5.7578783E-2,2.4686575E-1,-5.4043237E-2,3.598364E-1,1.2538218E-1,-7.493356E-2,6.366713E-2,1.9014437E-1,4.0891077E-2,4.4014715E-2,2.0689884E-1,-9.531626E-2,1.0187175E-1,3.748355E-2,2.2462808E-1,5.163296E-1,8.708525E-2,-2.3274384E-1,4.9031436E-2,-3.5984087E-1,4.138813E-2,3.4513906E-2,-1.4361237E-1,4.2049113E-1,5.5843484E-2],"categories":[],"categories_nodes":[],"categories_segments":[],"categories_sizes":[],"default_left":[0,0,0,0,0,0,0,0,0,0,0,0,0,0,0,0,0,0,0,0,0,0,0,0,0,0,0,0,0,0,0,0,0,0,0,0,0,0,0,0,0,0,0,0,0,0,0,0,0,0,0,0,0,0,0,0,0,0,0,0,0,0,0,0,0,0,0,0,0,0,0,0,0,0,0,0,0,0,0,0,0,0,0,0,0,0,0,0,0,0,0,0,0,0,0,0,0,0,0,0,0,0,0,0,0,0,0,0,0,0,0,0,0,0,0],"id":16,"left_children":[1,3,5,7,9,11,13,15,17,19,21,23,25,27,29,31,33,35,37,39,-1,41,43,45,47,49,51,53,55,57,59,61,63,65,67,69,71,73,75,77,79,81,83,85,87,-1,89,91,93,-1,-1,95,97,99,101,103,105,107,109,111,113,-1,-1,-1,-1,-1,-1,-1,-1,-1,-1,-1,-1,-1,-1,-1,-1,-1,-1,-1,-1,-1,-1,-1,-1,-1,-1,-1,-1,-1,-1,-1,-1,-1,-1,-1,-1,-1,-1,-1,-1,-1,-1,-1,-1,-1,-1,-1,-1,-1,-1,-1,-1,-1,-1],"loss_changes":[7.435591E0,1.0399093E1,1.3843166E1,7.10431E0,8.144082E0,6.414118E0,7.6644564E0,5.5678697E0,1.2285917E1,7.4947267E0,5.213743E0,4.831188E0,4.6453056E0,7.350365E0,1.3366365E1,5.578666E0,7.378336E0,2.1426315E0,7.858641E0,5.6283073E0,0E0,3.0937595E0,3.2948153E0,1.9588852E0,2.6983738E0,6.163602E-1,7.973992E-1,3.138617E0,3.8515177E0,5.0438995E0,4.5216966E0,9.3539214E-1,5.95043E0,5.308237E0,2.8359165E0,1.9776611E0,2.0510254E0,6.4865985E0,8.883241E0,4.4246426E0,2.5909638E0,4.1072655E-1,5.1657045E-1,2.7694957E0,2.0386753E0,0E0,1.5313222E0,2.595697E0,8.4298325E-1,0E0,0E0,4.2648923E-1,2.1793091E-1,2.1198926E0,4.855206E0,5.5335E-1,3.4470406E0,1.8370441E0,2.010666E0,6.6429706E0,4.661537E0,0E0,0E0,0E0,0E0,0E0,0E0,0E0,0E0,0E0,0E0,0E0,0E0,0E0,0E0,0E0,0E0,0E0,0E0,0E0,0E0,0E0,0E0,0E0,0E0,0E0,0E0,0E0,0E0,0E0,0E0,0E0,0E0,0E0,0E0,0E0,0E0,0E0,0E0,0E0,0E0,0E0,0E0,0E0,0E0,0E0,0E0,0E0,0E0,0E0,0E0,0E0,0E0,0E0,0E0],"parents":[2147483647,0,0,1,1,2,2,3,3,4,4,5,5,6,6,7,7,8,8,9,9,10,10,11,11,12,12,13,13,14,14,15,15,16,16,17,17,18,18,19,19,21,21,22,22,23,23,24,24,25,25,26,26,27,27,28,28,29,29,30,30,31,31,32,32,33,33,34,34,35,35,36,36,37,37,38,38,39,39,40,40,41,41,42,42,43,43,44,44,46,46,47,47,48,48,51,51,52,52,53,53,54,54,55,55,56,56,57,57,58,58,59,59,60,60],"right_children":[2,4,6,8,10,12,14,16,18,20,22,24,26,28,30,32,34,36,38,40,-1,42,44,46,48,50,52,54,56,58,60,62,64,66,68,70,72,74,76,78,80,82,84,86,88,-1,90,92,94,-1,-1,96,98,100,102,104,106,108,110,112,114,-1,-1,-1,-1,-1,-1,-1,-1,-1,-1,-1,-1,-1,-1,-1,-1,-1,-1,-1,-1,-1,-1,-1,-1,-1,-1,-1,-1,-1,-1,-1,-1,-1,-1,-1,-1,-1,-1,-1,-1,-1,-1,-1,-1,-1,-1,-1,-1,-1,-1,-1,-1,-1,-1],"split_conditions":[2.2E1,2.1E1,2.4E1,1.1E1,1.5E1,3.9E1,2.8E1,8E0,1.1E1,4E0,1.9333334E1,2.3666666E1,-8.2966655E-1,3.3333332E1,2.9333334E1,6.6666665E0,8E0,9E0,1.3333333E1,1.5333333E1,-2.8555718E-1,5.341167E0,2.6E1,1.1E1,1.3612787E2,4.9E1,2.6E1,2E1,1.5893093E1,2.5E1,4.1333332E1,5.6666665E0,1.2E1,8.333333E0,1.5815435E1,1.8370433E2,1.3666667E1,1.2E1,2.5E1,2.3E1,1.4706766E2,9E0,1.6263872E1,2.5E1,1.8E1,3.3006403E-1,1.2105751E1,1.433234E1,3.4E1,-3.742652E-1,-4.604931E-2,2.5355457E2,8.062E0,1.8E1,2.9333334E1,3.7E1,1.8709612E1,1.3363711E1,2.0120335E1,4E1,3.5E1,-2.3506875E-1,-6.9601394E-2,1.3447411E-1,-1.2151388E-1,-1.4612804E-1,1.2673393E-1,-6.776545E-2,-2.0561208E-1,1.07970886E-1,4.4525516E-1,8.300701E-2,2.1881735E-1,-4.736106E-3,-1.9175312E-1,3.5825856E-2,-1.672204E-1,5.4504707E-2,-3.0574673E-1,2.1633558E-1,3.5744324E-2,-1.2847835E-1,-3.7974098E-1,-1.6273184E-1,-7.6051E-3,4.7452305E-2,-2.0843709E-1,-4.957347E-2,-3.0563787E-1,1.0909636E-1,-5.7578783E-2,2.4686575E-1,-5.4043237E-2,3.598364E-1,1.2538218E-1,-7.493356E-2,6.366713E-2,1.9014437E-1,4.0891077E-2,4.4014715E-2,2.0689884E-1,-9.531626E-2,1.0187175E-1,3.748355E-2,2.2462808E-1,5.163296E-1,8.708525E-2,-2.3274384E-1,4.9031436E-2,-3.5984087E-1,4.138813E-2,3.4513906E-2,-1.4361237E-1,4.2049113E-1,5.5843484E-2],"split_indices":[3,1,0,3,0,1,1,0,0,5,3,3,4,3,3,3,1,1,3,3,0,4,1,1,7,1,3,1,6,2,3,3,1,3,6,7,3,1,0,1,7,2,6,0,0,0,4,6,1,0,0,7,4,1,3,3,6,6,4,0,1,0,0,0,0,0,0,0,0,0,0,0,0,0,0,0,0,0,0,0,0,0,0,0,0,0,0,0,0,0,0,0,0,0,0,0,0,0,0,0,0,0,0,0,0,0,0,0,0,0,0,0,0,0,0],"split_type":[0,0,0,0,0,0,0,0,0,0,0,0,0,0,0,0,0,0,0,0,0,0,0,0,0,0,0,0,0,0,0,0,0,0,0,0,0,0,0,0,0,0,0,0,0,0,0,0,0,0,0,0,0,0,0,0,0,0,0,0,0,0,0,0,0,0,0,0,0,0,0,0,0,0,0,0,0,0,0,0,0,0,0,0,0,0,0,0,0,0,0,0,0,0,0,0,0,0,0,0,0,0,0,0,0,0,0,0,0,0,0,0,0,0,0],"sum_hessian":[9.49E2,6.58E2,2.91E2,5.49E2,1.09E2,7.1E1,2.2E2,1.44E2,4.05E2,5.4E1,5.5E1,5.7E1,1.4E1,9.5E1,1.25E2,5.6E1,8.8E1,6.5E1,3.4E2,4.7E1,7E0,2.4E1,3.1E1,2.6E1,3.1E1,3E0,1.1E1,7.9E1,1.6E1,2.4E1,1.01E2,1.4E1,4.2E1,2.6E1,6.2E1,7E0,5.8E1,6.6E1,2.74E2,1.1E1,3.6E1,1.6E1,8E0,1.9E1,1.2E1,2E0,2.4E1,9E0,2.2E1,2E0,1E0,6E0,5E0,3.3E1,4.6E1,8E0,8E0,8E0,1.6E1,8.1E1,2E1,5E0,9E0,3.2E1,1E1,9E0,1.7E1,2.2E1,4E1,4E0,3E0,4.5E1,1.3E1,3.5E1,3.1E1,2.54E2,2E1,5E0,6E0,9E0,2.7E1,2E0,1.4E1,5E0,3E0,1.5E1,4E0,5E0,7E0,1.8E1,6E0,5E0,4E0,1.9E1,3E0,3E0,3E0,3E0,2E0,2.3E1,1E1,2.9E1,1.7E1,7E0,1E0,5E0,3E0,2E0,6E0,1.5E1,1E0,5.3E1,2.8E1,3E0,1.7E1],"tree_param":{"num_deleted":"0","num_feature":"8","num_nodes":"115","size_leaf_vector":"1"}},{"base_weights":[3.640834E-3,-1.1496997E-3,1.1368895E0,-2.5673538E-1,1.735554E-2,1.0556546E-1,3.8437885E-1,-2.7265832E-2,-5.507938E-1,3.046283E-2,-3.32578E-1,-1.9233501E-1,2.5765747E-1,2.180722E-1,-7.7039695E-1,-1.3487645E-2,1.5245591E-1,3.9195585E-1,-4.2104548E-1,1.782657E-1,-3.2577223E-1,3.94015E-1,-6.658916E-2,-2.270794E-2,1.21300295E-1,-4.755928E-1,-4.002535E-1,5.6289636E-2,-1.7342985E-1,3.2216042E-1,-1.7097315E-2,-7.373715E-3,1.6169816E-1,-5.275795E-1,7.5264774E-2,-2.6451971E-2,2.6653492E-1,-1.271643E-1,9.181957E-2,1.4044498E-1,-4.0979862E-2,-5.56222E-2,2.2327613E-2,-1.7795945E-2,1.3069154E-2,-4.2155E-2,-2.6589936E-1,-3.5305053E-3,9.5873386E-2,-2.0177591E-1,-3.7184805E-2,7.291515E-2,2.9032445E-1,-1.5825059E-1,2.716088E-2,-5.7091713E-3,-1.7979693E-1,9.858506E-2,-8.6287886E-2],"categories":[],"categories_nodes":[],"categories_segments":[],"categories_sizes":[],"default_left":[0,0,0,0,0,0,0,0,0,0,0,0,0,0,0,0,0,0,0,0,0,0,0,0,0,0,0,0,0,0,0,0,0,0,0,0,0,0,0,0,0,0,0,0,0,0,0,0,0,0,0,0,0,0,0,0,0,0,0],"id":17,"left_children":[1,3,5,7,9,-1,-1,11,13,15,17,19,21,23,25,27,29,31,33,35,37,39,41,43,-1,45,-1,47,49,51,53,-1,-1,55,57,-1,-1,-1,-1,-1,-1,-1,-1,-1,-1,-1,-1,-1,-1,-1,-1,-1,-1,-1,-1,-1,-1,-1,-1],"loss_changes":[5.1587296E0,4.4834576E0,2.4776459E-3,4.3035393E0,4.064756E0,0E0,0E0,1.7897426E0,4.895673E0,4.5755467E0,2.2161574E0,1.2449205E0,6.452258E-1,3.231191E-1,3.021987E0,7.0184507E0,6.508421E0,2.582338E-1,1.5730519E0,1.4028821E0,1.2455335E0,4.5731986E-1,9.757446E-2,1.2289537E-2,0E0,2.0775132E0,0E0,7.8522267E0,4.634051E0,5.535969E0,6.310539E0,0E0,0E0,8.6423826E-1,6.4615405E-1,0E0,0E0,0E0,0E0,0E0,0E0,0E0,0E0,0E0,0E0,0E0,0E0,0E0,0E0,0E0,0E0,0E0,0E0,0E0,0E0,0E0,0E0,0E0,0E0],"parents":[2147483647,0,0,1,1,2,2,3,3,4,4,7,7,8,8,9,9,10,10,11,11,12,12,13,13,14,14,15,15,16,16,17,17,18,18,19,19,20,20,21,21,22,22,23,23,25,25,27,27,28,28,29,29,30,30,33,33,34,34],"right_children":[2,4,6,8,10,-1,-1,12,14,16,18,20,22,24,26,28,30,32,34,36,38,40,42,44,-1,46,-1,48,50,52,54,-1,-1,56,58,-1,-1,-1,-1,-1,-1,-1,-1,-1,-1,-1,-1,-1,-1,-1,-1,-1,-1,-1,-1,-1,-1,-1,-1],"split_conditions":[5.0666668E1,3.370988E1,5.1E1,1.7114204E1,4.4E1,1.0556546E-1,3.8437885E-1,6E-1,9E0,2.2666666E1,5.6941746E1,1.0514218E1,1.3693252E1,7E0,3.1E0,1.7E1,3.1E1,4.7E1,4.7E1,2.2E1,1.5463246E1,2.9361975E1,1.4970332E1,6E0,1.21300295E-1,-4.9633336E-1,-4.002535E-1,1.6E1,1.4333333E1,3.2E1,2.9666666E1,-7.373715E-3,1.6169816E-1,1.191812E1,2.5E1,-2.6451971E-2,2.6653492E-1,-1.271643E-1,9.181957E-2,1.4044498E-1,-4.0979862E-2,-5.56222E-2,2.2327613E-2,-1.7795945E-2,1.3069154E-2,-4.2155E-2,-2.6589936E-1,-3.5305053E-3,9.5873386E-2,-2.0177591E-1,-3.7184805E-2,7.291515E-2,2.9032445E-1,-1.5825059E-1,2.716088E-2,-5.7091713E-3,-1.7979693E-1,9.858506E-2,-8.6287886E-2],"split_indices":[3,7,0,6,2,0,0,5,1,3,7,6,4,2,5,0,0,2,1,2,6,7,4,2,0,4,0,3,3,3,3,0,0,6,0,0,0,0,0,0,0,0,0,0,0,0,0,0,0,0,0,0,0,0,0,0,0,0,0],"split_type":[0,0,0,0,0,0,0,0,0,0,0,0,0,0,0,0,0,0,0,0,0,0,0,0,0,0,0,0,0,0,0,0,0,0,0,0,0,0,0,0,0,0,0,0,0,0,0,0,0,0,0,0,0,0,0,0,0,0,0],"sum_hessian":[9.49E2,9.46E2,3E0,6.3E1,8.83E2,1E0,2E0,3.6E1,2.7E1,8.52E2,3.1E1,2.3E1,1.3E1,6E0,2.1E1,6.27E2,2.25E2,3E0,2.8E1,6E0,1.7E1,9E0,4E0,3E0,3E0,1.5E1,6E0,4.37E2,1.9E2,1.12E2,1.13E2,1E0,2E0,2.3E1,5E0,5E0,1E0,1.5E1,2E0,8E0,1E0,2E0,2E0,2E0,1E0,9E0,6E0,3.48E2,8.9E1,1.6E1,1.74E2,1.01E2,1.1E1,1.9E1,9.4E1,3E0,2E1,3E0,2E0],"tree_param":{"num_deleted":"0","num_feature":"8","num_nodes":"59","size_leaf_vector":"1"}},{"base_weights":[2.7968537E-3,7.776322E-2,-5.023644E-2,2.7915798E-2,4.8400807E-1,-1.6622348E-1,4.5446474E-2,-1.1448552E-1,1.2027966E-1,1.0696269E0,3.1959158E-1,4.9519047E-2,-2.9058492E-1,1.722741E-1,-5.9758805E-2,-7.992313E-2,-3.0743188E-1,2.9851165E-1,-2.4514887E-2,1.3723743E0,1.6588622E-1,-4.158702E-1,4.0153706E-1,-2.9271314E-1,2.1713299E-1,-5.934672E-1,-1.9786535E-1,2.5234425E-1,-1.6921484E-1,-1.5409125E-1,1.5967235E-1,7.386599E-2,-2.9166728E-1,1.548851E-1,5.1365525E-1,6.5778285E-1,-6.656417E-2,7.562514E-2,4.7682783E-1,8.8056E-2,-7.5017357E-1,4.6249598E-1,-3.4189796E-1,-3.7536272E-1,1.8114118E-1,3.5422504E-1,-3.373922E-1,-7.4370503E-1,-2.588969E-1,-9.609058E-2,-5.1355666E-1,7.877029E-2,5.928516E-1,-6.028803E-1,8.111122E-2,9.9994026E-2,-2.9068205E-1,4.3477944E-1,-4.7395263E-2,-8.586309E-2,4.8819274E-2,-1.329766E-1,3.2800057E-3,6.725014E-2,-1.9145828E-1,1.0149521E-1,2.912309E-1,4.6286967E-2,2.4849662E-1,3.2261787E-3,-1.2174096E-1,-2.6819918E-1,-6.937895E-2,1.7796722E-1,5.482906E-2,-1.3734943E-1,-1.650467E-2,-6.601515E-3,-2.1110886E-1,2.1053146E-1,5.2588817E-2,-2.28769E-2,-2.2198753E-1,-2.3855032E-1,7.370968E-2,-1.6931695E-1,5.7472948E-2,-7.1343305E-3,-2.1250291E-1,-2.9709166E-1,-6.770009E-2,8.703454E-2,-2.4458574E-2,2.7171543E-1,8.893478E-2,-2.1135671E-1,-3.926239E-2,-2.6144164E-2,2.0754077E-1,-3.3990897E-2,1.092477E-1,-2.1140409E-1,-5.1162068E-2,2.3761132E-1,-8.682819E-2,-6.177292E-2,1.2427748E-1],"categories":[],"categories_nodes":[],"categories_segments":[],"categories_sizes":[],"default_left":[0,0,0,0,0,0,0,0,0,0,0,0,0,0,0,0,0,0,0,0,0,0,0,0,0,0,0,0,0,0,0,0,0,0,0,0,0,0,0,0,0,0,0,0,0,0,0,0,0,0,0,0,0,0,0,0,0,0,0,0,0,0,0,0,0,0,0,0,0,0,0,0,0,0,0,0,0,0,0,0,0,0,0,0,0,0,0,0,0,0,0,0,0,0,0,0,0,0,0,0,0,0,0,0,0,0,0],"id":18,"left_children":[1,3,5,7,9,11,13,15,17,19,21,23,25,27,29,31,-1,33,35,37,-1,39,41,43,45,47,49,51,53,55,57,59,61,63,65,67,69,-1,-1,-1,71,73,75,77,-1,79,81,83,85,87,89,91,93,95,97,99,101,103,105,-1,-1,-1,-1,-1,-1,-1,-1,-1,-1,-1,-1,-1,-1,-1,-1,-1,-1,-1,-1,-1,-1,-1,-1,-1,-1,-1,-1,-1,-1,-1,-1,-1,-1,-1,-1,-1,-1,-1,-1,-1,-1,-1,-1,-1,-1,-1,-1],"loss_changes":[3.7808342E0,7.9650908E0,6.189129E0,4.6435337E0,3.7984285E0,6.775562E0,4.093233E0,4.291273E0,5.5300207E0,6.4893246E-1,2.276359E0,5.3983064E0,4.3758717E0,3.843388E0,3.502117E0,4.417677E0,0E0,2.8868742E0,3.4579105E0,8.1513596E-1,0E0,1.168797E0,1.6083345E0,2.5236452E0,4.908836E0,1.6672659E0,3.934699E0,6.631963E0,2.9799597E0,4.12434E0,2.9258604E0,2.5744288E0,2.619473E0,3.3848848E0,2.7172518E0,4.732554E-1,2.9682765E0,0E0,0E0,0E0,1.714611E-2,9.8864746E-1,7.458991E-2,3.3490705E0,0E0,3.0484748E0,1.3101918E0,1.4683065E0,1.8971374E0,4.188962E0,3.894053E0,2.5984063E0,3.2554064E0,3.875525E-1,1.9098599E0,2.4077754E0,3.7096891E0,5.921272E0,2.2806628E0,0E0,0E0,0E0,0E0,0E0,0E0,0E0,0E0,0E0,0E0,0E0,0E0,0E0,0E0,0E0,0E0,0E0,0E0,0E0,0E0,0E0,0E0,0E0,0E0,0E0,0E0,0E0,0E0,0E0,0E0,0E0,0E0,0E0,0E0,0E0,0E0,0E0,0E0,0E0,0E0,0E0,0E0,0E0,0E0,0E0,0E0,0E0,0E0],"parents":[2147483647,0,0,1,1,2,2,3,3,4,4,5,5,6,6,7,7,8,8,9,9,10,10,11,11,12,12,13,13,14,14,15,15,17,17,18,18,19,19,21,21,22,22,23,23,24,24,25,25,26,26,27,27,28,28,29,29,30,30,31,31,32,32,33,33,34,34,35,35,36,36,40,40,41,41,42,42,43,43,45,45,46,46,47,47,48,48,49,49,50,50,51,51,52,52,53,53,54,54,55,55,56,56,57,57,58,58],"right_children":[2,4,6,8,10,12,14,16,18,20,22,24,26,28,30,32,-1,34,36,38,-1,40,42,44,46,48,50,52,54,56,58,60,62,64,66,68,70,-1,-1,-1,72,74,76,78,-1,80,82,84,86,88,90,92,94,96,98,100,102,104,106,-1,-1,-1,-1,-1,-1,-1,-1,-1,-1,-1,-1,-1,-1,-1,-1,-1,-1,-1,-1,-1,-1,-1,-1,-1,-1,-1,-1,-1,-1,-1,-1,-1,-1,-1,-1,-1,-1,-1,-1,-1,-1,-1,-1,-1,-1,-1,-1],"split_conditions":[1.5E1,1.8E1,2.0666666E1,1.1E1,1E1,1.3E1,2.8E1,1.4E1,1.4E1,2.2E1,-3.5796669E0,1.3E1,1.5666667E1,1.5314083E1,3.6666668E1,5.1869993E0,-3.0743188E-1,1.8079027E1,7E0,1.8666666E1,1.6588622E-1,1.9E1,1.8128668E1,2.7937136E1,2.7E0,2.5682642E2,2.4E1,1.624394E1,1.6684916E1,2.4E1,3.8E1,-4.888E0,8.000001E-1,1.7709658E1,2.4366013E2,1.2864649E1,2.1E1,7.562514E-2,4.7682783E-1,8.8056E-2,2E1,2.7E1,2.2E1,1.784816E1,1.8114118E-1,1.9E1,2.1E1,7.5999994E0,1.9083395E1,2.5E1,2E-1,2.5E1,1.8709612E1,2.8E1,1.6766108E1,3.920333E0,2.8E1,1.8377599E2,4.4666668E1,-8.586309E-2,4.8819274E-2,-1.329766E-1,3.2800057E-3,6.725014E-2,-1.9145828E-1,1.0149521E-1,2.912309E-1,4.6286967E-2,2.4849662E-1,3.2261787E-3,-1.2174096E-1,-2.6819918E-1,-6.937895E-2,1.7796722E-1,5.482906E-2,-1.3734943E-1,-1.650467E-2,-6.601515E-3,-2.1110886E-1,2.1053146E-1,5.2588817E-2,-2.28769E-2,-2.2198753E-1,-2.3855032E-1,7.370968E-2,-1.6931695E-1,5.7472948E-2,-7.1343305E-3,-2.1250291E-1,-2.9709166E-1,-6.770009E-2,8.703454E-2,-2.4458574E-2,2.7171543E-1,8.893478E-2,-2.1135671E-1,-3.926239E-2,-2.6144164E-2,2.0754077E-1,-3.3990897E-2,1.092477E-1,-2.1140409E-1,-5.1162068E-2,2.3761132E-1,-8.682819E-2,-6.177292E-2,1.2427748E-1],"split_indices":[1,3,3,3,1,0,1,0,0,0,4,3,3,4,3,4,0,6,1,3,0,0,4,6,5,7,1,6,4,0,1,4,5,6,7,6,0,0,0,0,0,0,0,6,0,1,2,5,6,0,5,0,6,3,6,4,3,7,3,0,0,0,0,0,0,0,0,0,0,0,0,0,0,0,0,0,0,0,0,0,0,0,0,0,0,0,0,0,0,0,0,0,0,0,0,0,0,0,0,0,0,0,0,0,0,0,0],"split_type":[0,0,0,0,0,0,0,0,0,0,0,0,0,0,0,0,0,0,0,0,0,0,0,0,0,0,0,0,0,0,0,0,0,0,0,0,0,0,0,0,0,0,0,0,0,0,0,0,0,0,0,0,0,0,0,0,0,0,0,0,0,0,0,0,0,0,0,0,0,0,0,0,0,0,0,0,0,0,0,0,0,0,0,0,0,0,0,0,0,0,0,0,0,0,0,0,0,0,0,0,0,0,0,0,0,0,0],"sum_hessian":[9.49E2,3.93E2,5.56E2,3.51E2,4.2E1,2.51E2,3.05E2,1.38E2,2.13E2,8E0,3.4E1,9.2E1,1.59E2,1.38E2,1.67E2,1.34E2,4E0,9.5E1,1.18E2,4E0,4E0,3E0,3.1E1,3E1,6.2E1,3.6E1,1.23E2,1.12E2,2.6E1,1.17E2,5E1,7.8E1,5.6E1,5.8E1,3.7E1,6E0,1.12E2,1E0,3E0,1E0,2E0,2.9E1,2E0,2.8E1,2E0,5E1,1.2E1,2.4E1,1.2E1,9.4E1,2.9E1,7.5E1,3.7E1,9E0,1.7E1,4.1E1,7.6E1,2.1E1,2.9E1,1.5E1,6.3E1,3.7E1,1.9E1,5.4E1,4E0,2.8E1,9E0,2E0,4E0,9.2E1,2E1,1E0,1E0,1.9E1,1E1,1E0,1E0,1.4E1,1.4E1,1.6E1,3.4E1,8E0,4E0,2.3E1,1E0,7E0,5E0,8.5E1,9E0,1E1,1.9E1,3.2E1,4.3E1,1.7E1,2E1,7E0,2E0,1.4E1,3E0,2.3E1,1.8E1,1.6E1,6E1,1.4E1,7E0,2.2E1,7E0],"tree_param":{"num_deleted":"0","num_feature":"8","num_nodes":"107","size_leaf_vector":"1"}},{"base_weights":[1.9777669E-3,1.4686745E-1,-1.815299E-2,-2.5608522E-1,2.4389984E-1,-1.4691193E-1,1.6706046E-2,-2.1830386E-2,-4.3460196E-1,3.397037E-1,-6.66123E-2,3.4617208E-2,-3.3718514E-1,1.4713688E-1,-1.9472862E-2,-2.4614534E-1,3.331979E-1,-6.219366E-1,-1.0479164E-2,8.644807E-2,5.6402594E-1,6.0261082E-2,-2.0529786E-1,-3.4803846E-1,1.25993E-1,-4.2288753E-1,2.3369543E-1,1.2314454E-2,3.6262888E-1,-5.504651E-2,1.3282135E-1,9.830642E-2,-4.078113E-1,-6.362248E-2,-7.087436E-1,2.1378343E-1,-6.937461E-2,2.6696888E-1,-9.887542E-2,1.3260211E-1,7.5804454E-1,-3.1841934E-1,2.8865972E-1,3.1574864E-2,-5.404764E-1,5.226371E-1,2.6392108E-2,-2.008152E-1,-5.9787905E-1,5.816892E-1,-2.1124649E-1,-1.7829537E-2,3.9974788E-1,5.332621E-1,8.24399E-2,2.2818525E-1,-8.471552E-2,8.3732545E-1,5.2171204E-2,2.111149E-3,3.7915137E-2,-5.0836634E-2,-2.007402E-1,-2.335182E-1,-4.3626167E-2,8.023661E-2,1.5965939E-2,2.848332E-2,1.5711889E-1,-6.2245294E-2,9.993804E-2,1.24030866E-1,-1.19825915E-1,2.4094626E-1,-5.545435E-2,9.677153E-2,-1.3682136E-1,1.5106532E-1,9.759379E-3,-4.827922E-2,1.0256778E-1,-9.9122025E-2,-2.634042E-1,2.2317182E-1,-2.0604573E-2,-5.749365E-2,6.516035E-2,-1.10109314E-1,-9.6956705E-4,-5.6992333E-2,-1.9817583E-1,4.4395447E-2,2.1767218E-1,-1.2865756E-1,4.4795517E-2,1.1707784E-2,-1.7737877E-1,6.6953965E-2,2.2174819E-1,-1.0241953E-1,1.2063836E-1,2.1233116E-1,4.6571314E-2,-5.8968663E-2,-7.31749E-3,2.7963734E-1,-2.379799E-3,4.309474E-2,-9.499167E-2],"categories":[],"categories_nodes":[],"categories_segments":[],"categories_sizes":[],"default_left":[0,0,0,0,0,0,0,0,0,0,0,0,0,0,0,0,0,0,0,0,0,0,0,0,0,0,0,0,0,0,0,0,0,0,0,0,0,0,0,0,0,0,0,0,0,0,0,0,0,0,0,0,0,0,0,0,0,0,0,0,0,